{"learner":{"attributes":{"scikit_learn":"{\"_estimator_type\": \"regressor\"}"},"feature_names":["perch","bedrooms","bathrooms","kitchen_area_sqft","parking_spots","has_garden","has_ac","floors","house_age","district_Ampara","district_Anuradhapura","district_Badulla","district_Batticaloa","district_Colombo","district_Galle","district_Gampaha","district_Hambantota","district_Jaffna","district_Kalutara","district_Kandy","district_Kegalle","district_Kilinochchi","district_Kurunegala","district_Mannar","district_Matale","district_Matara","district_Monaragala","district_Mullaitivu","district_Nuwara Eliya","district_Polonnaruwa","district_Puttalam","district_Ratnapura","district_Trincomalee","district_Vavuniya","area_Akurugoda","area_Ambalantota","area_Ampara Central","area_Badulla Town","area_Bambalapitiya","area_Bandarawela","area_Batticaloa Town","area_Beruwala","area_Borella","area_China Bay","area_Chunnakam","area_Dehiwala","area_Eravur","area_Galle Fort","area_Gampaha Town","area_Gatambe","area_Hali Ela","area_Hambantota Town","area_Hikkaduwa","area_Ja-Ela","area_Jaffna Town","area_Kadawatha","area_Kallady","area_Kalutara North","area_Kandy City","area_Karapitiya","area_Katugastota","area_Kegalle Central","area_Kilinochchi Central","area_Kokuvil","area_Kollupitiya","area_Kurunegala Town","area_Kuruwita","area_Madawachchiya","area_Mannar Central","area_Matale Central","area_Matara Town","area_Melsiripura","area_Monaragala Central","area_Mount Lavinia","area_Mullaitivu Central","area_Nallur","area_Narahenpita","area_Negombo","area_New Town","area_Nilaveli","area_Nugegoda","area_Nupe","area_Nuwara Eliya Central","area_Nuwaragam Palatha","area_Panadura","area_Pannala","area_Pelmadulla","area_Peradeniya","area_Polgahawela","area_Polonnaruwa Central","area_Puttalam Central","area_Ragama","area_Rajagiriya","area_Ratnapura Town","area_Tangalle","area_Tennekumbura","area_Unawatuna","area_Uppuveli","area_Vavuniya Central","area_Wadduwa","area_Wattala","area_Weligama","area_Wellawatte","water_supply_Both","water_supply_Pipe-borne","water_supply_Well","electricity_Single phase","electricity_Three phase"],"feature_types":["int","int","int","int","int","int","int","int","int","i","i","i","i","i","i","i","i","i","i","i","i","i","i","i","i","i","i","i","i","i","i","i","i","i","i","i","i","i","i","i","i","i","i","i","i","i","i","i","i","i","i","i","i","i","i","i","i","i","i","i","i","i","i","i","i","i","i","i","i","i","i","i","i","i","i","i","i","i","i","i","i","i","i","i","i","i","i","i","i","i","i","i","i","i","i","i","i","i","i","i","i","i","i","i","i","i","i","i"],"gradient_booster":{"model":{"cats":{"enc":[],"feature_segments":[],"sorted_idx":[]},"gbtree_model_param":{"num_parallel_tree":"1","num_trees":"500"},"iteration_indptr":[0,1,2,3,4,5,6,7,8,9,10,11,12,13,14,15,16,17,18,19,20,21,22,23,24,25,26,27,28,29,30,31,32,33,34,35,36,37,38,39,40,41,42,43,44,45,46,47,48,49,50,51,52,53,54,55,56,57,58,59,60,61,62,63,64,65,66,67,68,69,70,71,72,73,74,75,76,77,78,79,80,81,82,83,84,85,86,87,88,89,90,91,92,93,94,95,96,97,98,99,100,101,102,103,104,105,106,107,108,109,110,111,112,113,114,115,116,117,118,119,120,121,122,123,124,125,126,127,128,129,130,131,132,133,134,135,136,137,138,139,140,141,142,143,144,145,146,147,148,149,150,151,152,153,154,155,156,157,158,159,160,161,162,163,164,165,166,167,168,169,170,171,172,173,174,175,176,177,178,179,180,181,182,183,184,185,186,187,188,189,190,191,192,193,194,195,196,197,198,199,200,201,202,203,204,205,206,207,208,209,210,211,212,213,214,215,216,217,218,219,220,221,222,223,224,225,226,227,228,229,230,231,232,233,234,235,236,237,238,239,240,241,242,243,244,245,246,247,248,249,250,251,252,253,254,255,256,257,258,259,260,261,262,263,264,265,266,267,268,269,270,271,272,273,274,275,276,277,278,279,280,281,282,283,284,285,286,287,288,289,290,291,292,293,294,295,296,297,298,299,300,301,302,303,304,305,306,307,308,309,310,311,312,313,314,315,316,317,318,319,320,321,322,323,324,325,326,327,328,329,330,331,332,333,334,335,336,337,338,339,340,341,342,343,344,345,346,347,348,349,350,351,352,353,354,355,356,357,358,359,360,361,362,363,364,365,366,367,368,369,370,371,372,373,374,375,376,377,378,379,380,381,382,383,384,385,386,387,388,389,390,391,392,393,394,395,396,397,398,399,400,401,402,403,404,405,406,407,408,409,410,411,412,413,414,415,416,417,418,419,420,421,422,423,424,425,426,427,428,429,430,431,432,433,434,435,436,437,438,439,440,441,442,443,444,445,446,447,448,449,450,451,452,453,454,455,456,457,458,459,460,461,462,463,464,465,466,467,468,469,470,471,472,473,474,475,476,477,478,479,480,481,482,483,484,485,486,487,488,489,490,491,492,493,494,495,496,497,498,499,500],"tree_info":[0,0,0,0,0,0,0,0,0,0,0,0,0,0,0,0,0,0,0,0,0,0,0,0,0,0,0,0,0,0,0,0,0,0,0,0,0,0,0,0,0,0,0,0,0,0,0,0,0,0,0,0,0,0,0,0,0,0,0,0,0,0,0,0,0,0,0,0,0,0,0,0,0,0,0,0,0,0,0,0,0,0,0,0,0,0,0,0,0,0,0,0,0,0,0,0,0,0,0,0,0,0,0,0,0,0,0,0,0,0,0,0,0,0,0,0,0,0,0,0,0,0,0,0,0,0,0,0,0,0,0,0,0,0,0,0,0,0,0,0,0,0,0,0,0,0,0,0,0,0,0,0,0,0,0,0,0,0,0,0,0,0,0,0,0,0,0,0,0,0,0,0,0,0,0,0,0,0,0,0,0,0,0,0,0,0,0,0,0,0,0,0,0,0,0,0,0,0,0,0,0,0,0,0,0,0,0,0,0,0,0,0,0,0,0,0,0,0,0,0,0,0,0,0,0,0,0,0,0,0,0,0,0,0,0,0,0,0,0,0,0,0,0,0,0,0,0,0,0,0,0,0,0,0,0,0,0,0,0,0,0,0,0,0,0,0,0,0,0,0,0,0,0,0,0,0,0,0,0,0,0,0,0,0,0,0,0,0,0,0,0,0,0,0,0,0,0,0,0,0,0,0,0,0,0,0,0,0,0,0,0,0,0,0,0,0,0,0,0,0,0,0,0,0,0,0,0,0,0,0,0,0,0,0,0,0,0,0,0,0,0,0,0,0,0,0,0,0,0,0,0,0,0,0,0,0,0,0,0,0,0,0,0,0,0,0,0,0,0,0,0,0,0,0,0,0,0,0,0,0,0,0,0,0,0,0,0,0,0,0,0,0,0,0,0,0,0,0,0,0,0,0,0,0,0,0,0,0,0,0,0,0,0,0,0,0,0,0,0,0,0,0,0,0,0,0,0,0,0,0,0,0,0,0,0,0,0,0,0,0,0,0,0,0,0,0,0,0,0,0,0,0,0,0,0,0,0,0,0,0,0,0,0,0,0,0,0,0,0,0,0,0,0,0,0,0,0,0,0,0,0,0,0,0,0,0,0,0,0,0,0,0,0,0,0,0,0,0,0,0],"trees":[{"base_weights":[3.855496E-3,-5.667219E-1,5.937913E-1,-8.035874E-1,-2.2481257E-1,3.586082E-1,1.0378526E0,-8.38318E-1,3.8473222E-2,-2.6419547E-1,6.01753E-1,1.8113571E-1,5.264521E-1,8.4940773E-1,1.1915215E0,-4.3072898E-2,-1.5107396E-2,9.581399E-3,-1.7596448E-3,-1.8925494E-2,-5.3427205E-3,2.085577E-2,3.4101732E-2,7.5204386E-3,4.972447E-2,2.4472877E-2,6.6176824E-2,4.032163E-2,8.164779E-2,5.7932436E-2,9.687354E-2],"categories":[],"categories_nodes":[],"categories_segments":[],"categories_sizes":[],"default_left":[0,0,0,0,0,0,0,0,0,0,0,0,0,0,0,0,0,0,0,0,0,0,0,0,0,0,0,0,0,0,0],"id":0,"left_children":[1,3,5,7,9,11,13,15,17,19,21,23,25,27,29,-1,-1,-1,-1,-1,-1,-1,-1,-1,-1,-1,-1,-1,-1,-1,-1],"loss_changes":[3.7935276E3,4.6379102E2,5.7830615E2,9.899829E1,7.652727E1,1.0785516E2,5.452954E1,4.0062256E1,1.5298564E0,4.0248947E1,1.3015747E0,4.3911068E1,5.4258484E1,2.7810364E1,2.3600708E1,0E0,0E0,0E0,0E0,0E0,0E0,0E0,0E0,0E0,0E0,0E0,0E0,0E0,0E0,0E0,0E0],"parents":[2147483647,0,0,1,1,2,2,3,3,4,4,5,5,6,6,7,7,8,8,9,9,10,10,11,11,12,12,13,13,14,14],"right_children":[2,4,6,8,10,12,14,16,18,20,22,24,26,28,30,-1,-1,-1,-1,-1,-1,-1,-1,-1,-1,-1,-1,-1,-1,-1,-1],"split_conditions":[9.8E1,6.1E1,1.98E2,1E0,1E0,1.36E2,2.5E2,1E0,1.2E1,8.1E1,3E0,1E0,1E0,1E0,1E0,-4.3072898E-2,-1.5107396E-2,9.581399E-3,-1.7596448E-3,-1.8925494E-2,-5.3427205E-3,2.085577E-2,3.4101732E-2,7.5204386E-3,4.972447E-2,2.4472877E-2,6.6176824E-2,4.032163E-2,8.164779E-2,5.7932436E-2,9.687354E-2],"split_indices":[3,3,3,13,13,3,3,82,8,3,1,13,13,13,13,0,0,0,0,0,0,0,0,0,0,0,0,0,0,0,0],"split_type":[0,0,0,0,0,0,0,0,0,0,0,0,0,0,0,0,0,0,0,0,0,0,0,0,0,0,0,0,0,0,0],"sum_hessian":[1.1268E4,5.728E3,5.54E3,3.383E3,2.345E3,3.623E3,1.917E3,3.249E3,1.34E2,2.239E3,1.06E2,1.762E3,1.861E3,8.64E2,1.053E3,3.114E3,1.35E2,4.3E1,9.1E1,1.296E3,9.43E2,3.4E1,7.2E1,1.699E3,6.3E1,1.78E3,8.1E1,8.21E2,4.3E1,1.011E3,4.2E1],"tree_param":{"num_deleted":"0","num_feature":"108","num_nodes":"31","size_leaf_vector":"1"}},{"base_weights":[-2.3677094E-4,-6.221747E-1,5.008664E-1,-9.4012856E-1,-3.4070075E-1,2.445122E-1,8.9151114E-1,-9.741768E-1,-1.4135914E-1,-3.7542218E-1,4.5689547E-1,2.1027894E-1,9.999382E-1,7.408026E-1,1.153371E0,-5.2422848E-2,-3.959612E-2,-1.1158967E-2,1.5906245E-3,-2.5903732E-2,-1.11774625E-2,1.4052165E-2,2.9320855E-2,3.5374013E-3,2.0183938E-2,4.2455085E-2,5.7014603E-2,3.5396155E-2,7.688558E-2,5.619663E-2,9.56082E-2],"categories":[],"categories_nodes":[],"categories_segments":[],"categories_sizes":[],"default_left":[0,0,0,0,0,0,0,0,0,0,0,0,0,0,0,0,0,0,0,0,0,0,0,0,0,0,0,0,0,0,0],"id":1,"left_children":[1,3,5,7,9,11,13,15,17,19,21,23,25,27,29,-1,-1,-1,-1,-1,-1,-1,-1,-1,-1,-1,-1,-1,-1,-1,-1],"loss_changes":[3.4874202E3,4.4653174E2,6.20371E2,6.361133E1,7.3559784E1,9.658632E1,9.603088E1,2.9603027E1,1.3814869E0,5.4913452E1,2.3634014E0,9.66326E1,2.4613953E0,3.9812805E1,1.7843018E1,0E0,0E0,0E0,0E0,0E0,0E0,0E0,0E0,0E0,0E0,0E0,0E0,0E0,0E0,0E0,0E0],"parents":[2147483647,0,0,1,1,2,2,3,3,4,4,5,5,6,6,7,7,8,8,9,9,10,10,11,11,12,12,13,13,14,14],"right_children":[2,4,6,8,10,12,14,16,18,20,22,24,26,28,30,-1,-1,-1,-1,-1,-1,-1,-1,-1,-1,-1,-1,-1,-1,-1,-1],"split_conditions":[9E0,5E0,1.7E1,1E0,1E0,1E0,2.5E1,4E0,4E0,7E0,7E0,1.3E1,1.2E1,1E0,1E0,-5.2422848E-2,-3.959612E-2,-1.1158967E-2,1.5906245E-3,-2.5903732E-2,-1.11774625E-2,1.4052165E-2,2.9320855E-2,3.5374013E-3,2.0183938E-2,4.2455085E-2,5.7014603E-2,3.5396155E-2,7.688558E-2,5.619663E-2,9.56082E-2],"split_indices":[0,0,0,13,13,13,0,0,0,0,0,0,0,13,13,0,0,0,0,0,0,0,0,0,0,0,0,0,0,0,0],"split_type":[0,0,0,0,0,0,0,0,0,0,0,0,0,0,0,0,0,0,0,0,0,0,0,0,0,0,0,0,0,0,0],"sum_hessian":[1.1188E4,4.992E3,6.196E3,2.343E3,2.649E3,3.742E3,2.454E3,2.247E3,9.6E1,2.539E3,1.1E2,3.581E3,1.61E2,1.56E3,8.94E2,1.593E3,6.54E2,6.5E1,3.1E1,1.308E3,1.231E3,4.8E1,6.2E1,2.081E3,1.5E3,8.1E1,8E1,1.5E3,6E1,8.63E2,3.1E1],"tree_param":{"num_deleted":"0","num_feature":"108","num_nodes":"31","size_leaf_vector":"1"}},{"base_weights":[-2.7653524E-3,-5.976526E-1,4.8133364E-1,-8.946681E-1,-3.3534318E-1,2.0201157E-1,8.075635E-1,-9.284438E-1,-1.23405E-1,-3.6662617E-1,4.478609E-1,1.6919266E-1,9.1612506E-1,6.453412E-1,1.0427259E0,-5.0042976E-2,-3.7470862E-2,-1.0450172E-2,2.076754E-3,-2.4995409E-2,-1.105041E-2,1.5627092E-2,2.801375E-2,1.2626942E-3,1.5606209E-2,3.6035098E-2,5.0370704E-2,3.0351892E-2,7.194217E-2,5.059702E-2,8.8347085E-2],"categories":[],"categories_nodes":[],"categories_segments":[],"categories_sizes":[],"default_left":[0,0,0,0,0,0,0,0,0,0,0,0,0,0,0,0,0,0,0,0,0,0,0,0,0,0,0,0,0,0,0],"id":2,"left_children":[1,3,5,7,9,11,13,15,17,19,21,23,25,27,29,-1,-1,-1,-1,-1,-1,-1,-1,-1,-1,-1,-1,-1,-1,-1,-1],"loss_changes":[3.225424E3,3.911975E2,5.625227E2,6.125891E1,6.5581726E1,7.7841415E1,1.0797424E2,2.8510498E1,1.4205425E0,4.972992E1,1.3917027E0,6.547722E1,1.8785934E0,5.0431335E1,2.4096924E1,0E0,0E0,0E0,0E0,0E0,0E0,0E0,0E0,0E0,0E0,0E0,0E0,0E0,0E0,0E0,0E0],"parents":[2147483647,0,0,1,1,2,2,3,3,4,4,5,5,6,6,7,7,8,8,9,9,10,10,11,11,12,12,13,13,14,14],"right_children":[2,4,6,8,10,12,14,16,18,20,22,24,26,28,30,-1,-1,-1,-1,-1,-1,-1,-1,-1,-1,-1,-1,-1,-1,-1,-1],"split_conditions":[9E0,5E0,1.6E1,1E0,1E0,1E0,2.3E1,4E0,4E0,7E0,7E0,1.2E1,1.1E1,1E0,1E0,-5.0042976E-2,-3.7470862E-2,-1.0450172E-2,2.076754E-3,-2.4995409E-2,-1.105041E-2,1.5627092E-2,2.801375E-2,1.2626942E-3,1.5606209E-2,3.6035098E-2,5.0370704E-2,3.0351892E-2,7.194217E-2,5.059702E-2,8.8347085E-2],"split_indices":[0,0,0,13,13,13,0,0,0,0,0,0,0,13,13,0,0,0,0,0,0,0,0,0,0,0,0,0,0,0,0],"split_type":[0,0,0,0,0,0,0,0,0,0,0,0,0,0,0,0,0,0,0,0,0,0,0,0,0,0,0,0,0,0,0],"sum_hessian":[1.1198E4,5.024E3,6.174E3,2.355E3,2.669E3,3.327E3,2.847E3,2.256E3,9.9E1,2.567E3,1.02E2,3.182E3,1.45E2,1.687E3,1.16E3,1.603E3,6.53E2,6.5E1,3.4E1,1.339E3,1.228E3,4.8E1,5.4E1,1.586E3,1.596E3,4.9E1,9.6E1,1.611E3,7.6E1,1.115E3,4.5E1],"tree_param":{"num_deleted":"0","num_feature":"108","num_nodes":"31","size_leaf_vector":"1"}},{"base_weights":[-7.002296E-4,-5.099679E-1,5.07751E-1,-7.7456856E-1,-1.8513809E-1,3.097252E-1,8.8369685E-1,-9.154051E-1,-6.1127484E-1,-2.8983188E-1,-6.7587465E-2,1.4661643E-1,4.315416E-1,7.910926E-1,1.1304287E0,-4.6855584E-2,-2.1934459E-2,-3.1513732E-2,-4.728234E-3,-1.5563867E-2,1.0668117E-2,-4.5977845E-3,2.2776773E-2,6.3199936E-3,3.2732036E-2,1.589788E-2,2.617225E-2,3.8462248E-2,6.578758E-2,5.5156138E-2,7.883438E-2],"categories":[],"categories_nodes":[],"categories_segments":[],"categories_sizes":[],"default_left":[0,0,0,0,0,0,0,0,0,0,0,0,0,0,0,0,0,0,0,0,0,0,0,0,0,0,0,0,0,0,0],"id":3,"left_children":[1,3,5,7,9,11,13,15,17,19,21,23,25,27,29,-1,-1,-1,-1,-1,-1,-1,-1,-1,-1,-1,-1,-1,-1,-1,-1],"loss_changes":[2.9045051E3,4.8152148E2,4.175973E2,7.0457275E1,3.095668E1,7.301608E1,4.334021E1,1.6725098E1,1.4008667E1,1.4429535E1,1.517326E1,1.6083015E1,2.180716E1,1.516156E1,4.670349E0,0E0,0E0,0E0,0E0,0E0,0E0,0E0,0E0,0E0,0E0,0E0,0E0,0E0,0E0,0E0,0E0],"parents":[2147483647,0,0,1,1,2,2,3,3,4,4,5,5,6,6,7,7,8,8,9,9,10,10,11,11,12,12,13,13,14,14],"right_children":[2,4,6,8,10,12,14,16,18,20,22,24,26,28,30,-1,-1,-1,-1,-1,-1,-1,-1,-1,-1,-1,-1,-1,-1,-1,-1],"split_conditions":[1E1,6E0,1.9E1,4E0,8E0,1.3E1,2.9E1,1E0,1E0,1E0,1E0,1E0,2E0,1E0,1E0,-4.6855584E-2,-2.1934459E-2,-3.1513732E-2,-4.728234E-3,-1.5563867E-2,1.0668117E-2,-4.5977845E-3,2.2776773E-2,6.3199936E-3,3.2732036E-2,1.589788E-2,2.617225E-2,3.8462248E-2,6.578758E-2,5.5156138E-2,7.883438E-2],"split_indices":[0,0,0,0,0,0,0,28,28,28,28,28,7,28,28,0,0,0,0,0,0,0,0,0,0,0,0,0,0,0,0],"split_type":[0,0,0,0,0,0,0,0,0,0,0,0,0,0,0,0,0,0,0,0,0,0,0,0,0,0,0,0,0,0,0],"sum_hessian":[1.1215E4,5.603E3,5.612E3,3.087E3,2.516E3,3.677E3,1.935E3,1.655E3,1.432E3,1.33E3,1.186E3,1.573E3,2.104E3,1.41E3,5.25E2,1.582E3,7.3E1,1.381E3,5.1E1,1.276E3,5.4E1,1.134E3,5.2E1,1.514E3,5.9E1,9.43E2,1.161E3,1.356E3,5.4E1,4.98E2,2.7E1],"tree_param":{"num_deleted":"0","num_feature":"108","num_nodes":"31","size_leaf_vector":"1"}},{"base_weights":[3.9022922E-4,-4.865965E-1,4.8219526E-1,-8.0921423E-1,-2.4947113E-1,2.42146E-1,7.88531E-1,-8.3887905E-1,-9.217471E-2,-4.215658E-1,-1.2654445E-1,2.0816918E-1,9.47897E-1,6.376635E-1,9.8664486E-1,-4.2890936E-2,-1.7407315E-2,-8.858862E-3,4.0355413E-3,-2.2350928E-2,1.4408342E-2,-7.862877E-3,2.8742472E-2,2.8869254E-3,1.5578163E-2,3.867613E-2,5.2926578E-2,3.0372372E-2,6.6550754E-2,4.7879394E-2,8.208884E-2],"categories":[],"categories_nodes":[],"categories_segments":[],"categories_sizes":[],"default_left":[0,0,0,0,0,0,0,0,0,0,0,0,0,0,0,0,0,0,0,0,0,0,0,0,0,0,0,0,0,0,0],"id":4,"left_children":[1,3,5,7,9,11,13,15,17,19,21,23,25,27,29,-1,-1,-1,-1,-1,-1,-1,-1,-1,-1,-1,-1,-1,-1,-1,-1],"loss_changes":[2.6321091E3,4.265963E2,4.144768E2,5.018567E1,6.8002365E1,7.564882E1,7.340576E1,2.0790161E1,1.4103925E0,2.4335464E1,4.054623E1,4.693843E1,1.9785156E0,2.871045E1,1.8777466E1,0E0,0E0,0E0,0E0,0E0,0E0,0E0,0E0,0E0,0E0,0E0,0E0,0E0,0E0,0E0,0E0],"parents":[2147483647,0,0,1,1,2,2,3,3,4,4,5,5,6,6,7,7,8,8,9,9,10,10,11,11,12,12,13,13,14,14],"right_children":[2,4,6,8,10,12,14,16,18,20,22,24,26,28,30,-1,-1,-1,-1,-1,-1,-1,-1,-1,-1,-1,-1,-1,-1,-1,-1],"split_conditions":[1E1,5E0,1.74E2,1E0,7E0,1E0,2.5E2,1E0,4E0,1E0,1E0,1.19E2,1.19E2,1E0,1E0,-4.2890936E-2,-1.7407315E-2,-8.858862E-3,4.0355413E-3,-2.2350928E-2,1.4408342E-2,-7.862877E-3,2.8742472E-2,2.8869254E-3,1.5578163E-2,3.867613E-2,5.2926578E-2,3.0372372E-2,6.6550754E-2,4.7879394E-2,8.208884E-2],"split_indices":[0,0,3,13,0,13,3,82,0,13,13,3,3,13,13,0,0,0,0,0,0,0,0,0,0,0,0,0,0,0,0],"split_type":[0,0,0,0,0,0,0,0,0,0,0,0,0,0,0,0,0,0,0,0,0,0,0,0,0,0,0,0,0,0,0],"sum_hessian":[1.1216E4,5.578E3,5.638E3,2.362E3,3.216E3,3.162E3,2.476E3,2.268E3,9.4E1,1.339E3,1.877E3,3.018E3,1.44E2,1.408E3,1.068E3,2.183E3,8.5E1,6.3E1,3.1E1,1.293E3,4.6E1,1.799E3,7.8E1,1.23E3,1.788E3,5.9E1,8.5E1,1.351E3,5.7E1,1.025E3,4.3E1],"tree_param":{"num_deleted":"0","num_feature":"108","num_nodes":"31","size_leaf_vector":"1"}},{"base_weights":[1.009752E-3,-4.5626396E-1,3.801617E-1,-4.8344484E-1,2.2681631E-1,5.3939104E-2,5.045498E-1,-5.741269E-1,-3.434372E-1,1.1304068E-1,4.1853055E-1,2.633391E-2,6.5501314E-1,4.746522E-1,1.1589423E0,-2.9701665E-2,-3.5391187E-3,-1.8136403E-2,5.8038556E-3,1.7228866E-2,3.9167493E-3,1.8027565E-2,3.1855896E-2,-8.130029E-3,6.0345214E-3,3.0457873E-2,4.2249624E-2,1.6525522E-3,2.5831288E-2,2.8514737E-2,6.02414E-2],"categories":[],"categories_nodes":[],"categories_segments":[],"categories_sizes":[],"default_left":[0,0,0,0,0,0,0,0,0,0,0,0,0,0,0,0,0,0,0,0,0,0,0,0,0,0,0,0,0,0,0],"id":5,"left_children":[1,3,5,7,9,11,13,15,17,19,21,23,25,27,29,-1,-1,-1,-1,-1,-1,-1,-1,-1,-1,-1,-1,-1,-1,-1,-1],"loss_changes":[1.9620988E3,9.535693E1,2.5103009E2,6.24458E1,4.249734E0,2.8339787E1,8.7080444E1,2.9947144E1,1.725682E1,9.7746265E-1,6.9545364E-1,2.9167099E1,1.3863754E-1,7.94079E1,4.5799255E0,0E0,0E0,0E0,0E0,0E0,0E0,0E0,0E0,0E0,0E0,0E0,0E0,0E0,0E0,0E0,0E0],"parents":[2147483647,0,0,1,1,2,2,3,3,4,4,5,5,6,6,7,7,8,8,9,9,10,10,11,11,12,12,13,13,14,14],"right_children":[2,4,6,8,10,12,14,16,18,20,22,24,26,28,30,-1,-1,-1,-1,-1,-1,-1,-1,-1,-1,-1,-1,-1,-1,-1,-1],"split_conditions":[4E0,1E0,5E0,3E0,3E0,1E0,1E0,1E0,1E0,5E0,2E0,1E0,2E0,1E0,1E0,-2.9701665E-2,-3.5391187E-3,-1.8136403E-2,5.8038556E-3,1.7228866E-2,3.9167493E-3,1.8027565E-2,3.1855896E-2,-8.130029E-3,6.0345214E-3,3.0457873E-2,4.2249624E-2,1.6525522E-3,2.5831288E-2,2.8514737E-2,6.02414E-2],"split_indices":[1,13,1,1,1,13,13,28,28,8,4,4,4,4,4,0,0,0,0,0,0,0,0,0,0,0,0,0,0,0,0],"split_type":[0,0,0,0,0,0,0,0,0,0,0,0,0,0,0,0,0,0,0,0,0,0,0,0,0,0,0,0,0,0,0],"sum_hessian":[1.1315E4,5.129E3,6.186E3,4.933E3,1.96E2,1.708E3,4.478E3,2.992E3,1.941E3,1.24E2,7.2E1,1.634E3,7.4E1,4.284E3,1.94E2,2.878E3,1.14E2,1.863E3,7.8E1,1.5E1,1.09E2,5.9E1,1.3E1,5.44E2,1.09E3,6.3E1,1.1E1,3.72E2,3.912E3,1.5E1,1.79E2],"tree_param":{"num_deleted":"0","num_feature":"108","num_nodes":"31","size_leaf_vector":"1"}},{"base_weights":[3.0969137E-3,-4.8928016E-1,3.9896342E-1,-7.45836E-1,-2.6872414E-1,1.7993145E-1,7.2792745E-1,-7.72634E-1,-8.977695E-2,-2.9626697E-1,3.8011283E-1,1.526638E-1,8.027599E-1,5.501037E-1,8.8710654E-1,-4.4213604E-2,-3.4019724E-2,-8.418562E-3,2.6730306E-3,-2.0552909E-2,-8.619184E-3,1.2970366E-2,2.3900447E-2,1.3777855E-3,1.3772502E-2,3.3299584E-2,4.6988305E-2,2.615879E-2,5.9004348E-2,4.289309E-2,7.433532E-2],"categories":[],"categories_nodes":[],"categories_segments":[],"categories_sizes":[],"default_left":[0,0,0,0,0,0,0,0,0,0,0,0,0,0,0,0,0,0,0,0,0,0,0,0,0,0,0,0,0,0,0],"id":6,"left_children":[1,3,5,7,9,11,13,15,17,19,21,23,25,27,29,-1,-1,-1,-1,-1,-1,-1,-1,-1,-1,-1,-1,-1,-1,-1,-1],"loss_changes":[2.1670715E3,2.801781E2,4.4393555E2,4.0191162E1,4.7756165E1,6.273178E1,6.922925E1,2.2052734E1,1.0334476E0,3.630571E1,1.16401E0,5.4479828E1,2.278534E0,1.9162811E1,2.148529E1,0E0,0E0,0E0,0E0,0E0,0E0,0E0,0E0,0E0,0E0,0E0,0E0,0E0,0E0,0E0,0E0],"parents":[2147483647,0,0,1,1,2,2,3,3,4,4,5,5,6,6,7,7,8,8,9,9,10,10,11,11,12,12,13,13,14,14],"right_children":[2,4,6,8,10,12,14,16,18,20,22,24,26,28,30,-1,-1,-1,-1,-1,-1,-1,-1,-1,-1,-1,-1,-1,-1,-1,-1],"split_conditions":[9E0,5E0,1.73E2,1E0,1E0,1E0,2.31E2,3E0,4E0,7E0,7E0,1.21E2,1.19E2,1E0,1E0,-4.4213604E-2,-3.4019724E-2,-8.418562E-3,2.6730306E-3,-2.0552909E-2,-8.619184E-3,1.2970366E-2,2.3900447E-2,1.3777855E-3,1.3772502E-2,3.3299584E-2,4.6988305E-2,2.615879E-2,5.9004348E-2,4.289309E-2,7.433532E-2],"split_indices":[0,0,3,13,13,13,3,0,0,0,0,3,3,13,13,0,0,0,0,0,0,0,0,0,0,0,0,0,0,0,0],"split_type":[0,0,0,0,0,0,0,0,0,0,0,0,0,0,0,0,0,0,0,0,0,0,0,0,0,0,0,0,0,0,0],"sum_hessian":[1.1116E4,4.954E3,6.162E3,2.289E3,2.665E3,3.7E3,2.462E3,2.199E3,9E1,2.557E3,1.08E2,3.546E3,1.54E2,1.165E3,1.297E3,9.91E2,1.208E3,5.8E1,3.2E1,1.326E3,1.231E3,5E1,5.8E1,1.757E3,1.789E3,8E1,7.4E1,1.119E3,4.6E1,1.239E3,5.8E1],"tree_param":{"num_deleted":"0","num_feature":"108","num_nodes":"31","size_leaf_vector":"1"}},{"base_weights":[-1.4133507E-3,-4.6411714E-1,3.758387E-1,-7.113388E-1,-2.4586222E-1,1.9265649E-1,7.1129364E-1,-7.6973814E-1,-5.726154E-1,-4.3121955E-1,-1.7881143E-1,7.591432E-2,3.3150032E-1,6.1069125E-1,9.304216E-1,-3.9389264E-2,-1.8182045E-2,-2.9328004E-2,-5.5249585E-3,-2.2564782E-2,2.9968692E-3,-9.899407E-3,1.340876E-2,2.7618117E-3,2.9367566E-2,1.57165E-2,4.135506E-2,2.6003975E-2,3.5535697E-2,4.5282256E-2,6.776861E-2],"categories":[],"categories_nodes":[],"categories_segments":[],"categories_sizes":[],"default_left":[0,0,0,0,0,0,0,0,0,0,0,0,0,0,0,0,0,0,0,0,0,0,0,0,0,0,0,0,0,0,0],"id":7,"left_children":[1,3,5,7,9,11,13,15,17,19,21,23,25,27,29,-1,-1,-1,-1,-1,-1,-1,-1,-1,-1,-1,-1,-1,-1,-1,-1],"loss_changes":[1.9731803E3,2.7376672E2,3.8250824E2,1.8840332E1,3.345459E1,6.528061E1,4.7908325E1,1.1967468E1,4.503998E0,7.0871735E0,1.7050838E1,2.3127989E1,1.539772E1,1.3315857E1,6.0374146E0,0E0,0E0,0E0,0E0,0E0,0E0,0E0,0E0,0E0,0E0,0E0,0E0,0E0,0E0,0E0,0E0],"parents":[2147483647,0,0,1,1,2,2,3,3,4,4,5,5,6,6,7,7,8,8,9,9,10,10,11,11,12,12,13,13,14,14],"right_children":[2,4,6,8,10,12,14,16,18,20,22,24,26,28,30,-1,-1,-1,-1,-1,-1,-1,-1,-1,-1,-1,-1,-1,-1,-1,-1],"split_conditions":[9E0,5E0,1.8E1,4E0,6E0,1.3E1,2.7E1,1E0,1E0,1E0,1E0,1E0,1E0,1E0,1E0,-3.9389264E-2,-1.8182045E-2,-2.9328004E-2,-5.5249585E-3,-2.2564782E-2,2.9968692E-3,-9.899407E-3,1.340876E-2,2.7618117E-3,2.9367566E-2,1.57165E-2,4.135506E-2,2.6003975E-2,3.5535697E-2,4.5282256E-2,6.776861E-2],"split_indices":[0,0,0,0,0,0,0,19,19,82,82,82,82,6,82,0,0,0,0,0,0,0,0,0,0,0,0,0,0,0,0],"split_type":[0,0,0,0,0,0,0,0,0,0,0,0,0,0,0,0,0,0,0,0,0,0,0,0,0,0,0,0,0,0,0],"sum_hessian":[1.1302E4,5.076E3,6.226E3,2.379E3,2.697E3,4.028E3,2.198E3,1.671E3,7.08E2,7.15E2,1.982E3,2.189E3,1.839E3,1.509E3,6.89E2,1.599E3,7.2E1,6.87E2,2.1E1,6.87E2,2.8E1,1.901E3,8.1E1,2.105E3,8.4E1,1.779E3,6E1,7.95E2,7.14E2,6.54E2,3.5E1],"tree_param":{"num_deleted":"0","num_feature":"108","num_nodes":"31","size_leaf_vector":"1"}},{"base_weights":[-7.443876E-3,-4.4892573E-1,3.516854E-1,-5.789237E-1,-2.444611E-1,1.8181175E-1,6.884755E-1,-6.02694E-1,3.220847E-2,-2.7326447E-1,3.9276665E-1,1.5480152E-1,7.741159E-1,5.454449E-1,8.2320446E-1,-3.1074611E-2,-8.218249E-3,-8.740425E-5,8.122405E-3,-1.4627837E-2,9.971934E-3,1.0968652E-2,2.196796E-2,7.7035354E-4,1.3439876E-2,3.1870116E-2,4.4823557E-2,2.587114E-2,5.811406E-2,4.010504E-2,7.020689E-2],"categories":[],"categories_nodes":[],"categories_segments":[],"categories_sizes":[],"default_left":[0,0,0,0,0,0,0,0,0,0,0,0,0,0,0,0,0,0,0,0,0,0,0,0,0,0,0,0,0,0,0],"id":8,"left_children":[1,3,5,7,9,11,13,15,17,19,21,23,25,27,29,-1,-1,-1,-1,-1,-1,-1,-1,-1,-1,-1,-1,-1,-1,-1,-1],"loss_changes":[1.7771758E3,1.3350269E2,3.535008E2,4.4660156E1,3.600834E1,6.563307E1,3.9479248E1,2.427124E1,5.132927E-1,1.7130066E1,5.903177E-1,6.247696E1,2.4228363E0,1.682196E1,1.193042E1,0E0,0E0,0E0,0E0,0E0,0E0,0E0,0E0,0E0,0E0,0E0,0E0,0E0,0E0,0E0,0E0],"parents":[2147483647,0,0,1,1,2,2,3,3,4,4,5,5,6,6,7,7,8,8,9,9,10,10,11,11,12,12,13,13,14,14],"right_children":[2,4,6,8,10,12,14,16,18,20,22,24,26,28,30,-1,-1,-1,-1,-1,-1,-1,-1,-1,-1,-1,-1,-1,-1,-1,-1],"split_conditions":[8.5E1,5.6E1,1.87E2,1E0,1E0,1E0,2.48E2,1E0,4.7E1,1E0,6.1E1,1.21E2,1.19E2,1E0,1E0,-3.1074611E-2,-8.218249E-3,-8.740425E-5,8.122405E-3,-1.4627837E-2,9.971934E-3,1.0968652E-2,2.196796E-2,7.7035354E-4,1.3439876E-2,3.1870116E-2,4.4823557E-2,2.587114E-2,5.811406E-2,4.010504E-2,7.020689E-2],"split_indices":[3,3,3,13,13,13,3,19,3,82,3,3,3,13,13,0,0,0,0,0,0,0,0,0,0,0,0,0,0,0,0],"split_type":[0,0,0,0,0,0,0,0,0,0,0,0,0,0,0,0,0,0,0,0,0,0,0,0,0,0,0,0,0,0,0],"sum_hessian":[1.1207E4,5.027E3,6.18E3,3.072E3,1.955E3,4.109E3,2.071E3,2.957E3,1.15E2,1.871E3,8.4E1,3.931E3,1.78E2,1.007E3,1.064E3,2.835E3,1.22E2,9.2E1,2.3E1,1.798E3,7.3E1,1.9E1,6.5E1,1.769E3,2.162E3,8.7E1,9.1E1,9.65E2,4.2E1,1.029E3,3.5E1],"tree_param":{"num_deleted":"0","num_feature":"108","num_nodes":"31","size_leaf_vector":"1"}},{"base_weights":[-1.4404492E-3,-3.9417237E-1,3.5782483E-1,-5.282156E-1,-1.7582087E-1,1.6498695E-1,6.2773013E-1,-5.513642E-1,6.639251E-2,-2.0100027E-1,3.9715204E-1,1.411394E-1,7.4246526E-1,4.9278587E-1,7.7833545E-1,-2.8541028E-2,-5.8606793E-3,7.620722E-3,-2.1160245E-3,-1.1103018E-2,1.3770011E-2,1.230842E-2,2.2749752E-2,6.019327E-3,3.2529484E-2,2.8429335E-2,4.101451E-2,2.3301557E-2,5.3097434E-2,3.753862E-2,6.5646954E-2],"categories":[],"categories_nodes":[],"categories_segments":[],"categories_sizes":[],"default_left":[0,0,0,0,0,0,0,0,0,0,0,0,0,0,0,0,0,0,0,0,0,0,0,0,0,0,0,0,0,0,0],"id":9,"left_children":[1,3,5,7,9,11,13,15,17,19,21,23,25,27,29,-1,-1,-1,-1,-1,-1,-1,-1,-1,-1,-1,-1,-1,-1,-1,-1],"loss_changes":[1.5788523E3,1.5637677E2,3.0406476E2,4.5624207E1,2.9439022E1,4.6855812E1,4.91037E1,2.6862122E1,1.1754131E0,1.9625572E1,6.390629E-1,3.4557365E1,1.3604279E0,1.9103271E1,1.594519E1,0E0,0E0,0E0,0E0,0E0,0E0,0E0,0E0,0E0,0E0,0E0,0E0,0E0,0E0,0E0,0E0],"parents":[2147483647,0,0,1,1,2,2,3,3,4,4,5,5,6,6,7,7,8,8,9,9,10,10,11,11,12,12,13,13,14,14],"right_children":[2,4,6,8,10,12,14,16,18,20,22,24,26,28,30,-1,-1,-1,-1,-1,-1,-1,-1,-1,-1,-1,-1,-1,-1,-1,-1],"split_conditions":[9.2E1,6E1,1.72E2,1E0,1E0,1E0,2.4E2,1E0,1.9E1,1E0,6.9E1,1E0,1.1E2,1E0,1E0,-2.8541028E-2,-5.8606793E-3,7.620722E-3,-2.1160245E-3,-1.1103018E-2,1.3770011E-2,1.230842E-2,2.2749752E-2,6.019327E-3,3.2529484E-2,2.8429335E-2,4.101451E-2,2.3301557E-2,5.3097434E-2,3.753862E-2,6.5646954E-2],"split_indices":[3,3,3,13,13,13,3,28,8,28,3,28,3,13,13,0,0,0,0,0,0,0,0,0,0,0,0,0,0,0,0],"split_type":[0,0,0,0,0,0,0,0,0,0,0,0,0,0,0,0,0,0,0,0,0,0,0,0,0,0,0,0,0,0,0],"sum_hessian":[1.1188E4,5.345E3,5.843E3,3.311E3,2.034E3,3.409E3,2.434E3,3.187E3,1.24E2,1.949E3,8.5E1,3.275E3,1.34E2,1.286E3,1.148E3,3.05E3,1.37E2,6.9E1,5.5E1,1.867E3,8.2E1,2.5E1,6E1,3.148E3,1.27E2,4.4E1,9E1,1.23E3,5.6E1,1.094E3,5.4E1],"tree_param":{"num_deleted":"0","num_feature":"108","num_nodes":"31","size_leaf_vector":"1"}},{"base_weights":[1.4754678E-3,-4.1569072E-1,3.1441507E-1,-5.2791566E-1,-2.567644E-1,1.2965044E-1,5.749852E-1,-5.511626E-1,3.2420166E-2,-2.80858E-1,2.9990166E-1,1.0447698E-1,6.5212417E-1,4.288477E-1,7.2135055E-1,-2.8458336E-2,-7.252191E-3,2.2889706E-5,9.051116E-3,-1.5029946E-2,7.0319683E-3,7.3523535E-3,1.854868E-2,-2.9205086E-4,1.0247572E-2,2.470081E-2,3.7537616E-2,2.023641E-2,4.85385E-2,3.488439E-2,6.0863566E-2],"categories":[],"categories_nodes":[],"categories_segments":[],"categories_sizes":[],"default_left":[0,0,0,0,0,0,0,0,0,0,0,0,0,0,0,0,0,0,0,0,0,0,0,0,0,0,0,0,0,0,0],"id":10,"left_children":[1,3,5,7,9,11,13,15,17,19,21,23,25,27,29,-1,-1,-1,-1,-1,-1,-1,-1,-1,-1,-1,-1,-1,-1,-1,-1],"loss_changes":[1.4622662E3,8.549255E1,3.0804797E2,3.666034E1,2.6760895E1,4.9201035E1,5.6479675E1,1.9666626E1,5.366307E-1,1.5909927E1,8.4713364E-1,3.9627E1,2.3112717E0,1.7004501E1,1.4699402E1,0E0,0E0,0E0,0E0,0E0,0E0,0E0,0E0,0E0,0E0,0E0,0E0,0E0,0E0,0E0,0E0],"parents":[2147483647,0,0,1,1,2,2,3,3,4,4,5,5,6,6,7,7,8,8,9,9,10,10,11,11,12,12,13,13,14,14],"right_children":[2,4,6,8,10,12,14,16,18,20,22,24,26,28,30,-1,-1,-1,-1,-1,-1,-1,-1,-1,-1,-1,-1,-1,-1,-1,-1],"split_conditions":[8.2E1,5.3E1,1.66E2,1E0,1E0,1E0,2.28E2,1E0,4.7E1,1E0,6.2E1,1.16E2,1.03E2,1E0,1E0,-2.8458336E-2,-7.252191E-3,2.2889706E-5,9.051116E-3,-1.5029946E-2,7.0319683E-3,7.3523535E-3,1.854868E-2,-2.9205086E-4,1.0247572E-2,2.470081E-2,3.7537616E-2,2.023641E-2,4.85385E-2,3.488439E-2,6.0863566E-2],"split_indices":[3,3,3,13,13,13,3,28,3,19,3,3,3,13,13,0,0,0,0,0,0,0,0,0,0,0,0,0,0,0,0],"split_type":[0,0,0,0,0,0,0,0,0,0,0,0,0,0,0,0,0,0,0,0,0,0,0,0,0,0,0,0,0,0,0],"sum_hessian":[1.1199E4,4.8E3,6.399E3,2.812E3,1.988E3,3.745E3,2.654E3,2.7E3,1.12E2,1.906E3,8.2E1,3.574E3,1.71E2,1.33E3,1.324E3,2.585E3,1.15E2,9.3E1,1.9E1,1.821E3,8.5E1,2.7E1,5.5E1,1.704E3,1.87E3,6.8E1,1.03E2,1.275E3,5.5E1,1.266E3,5.8E1],"tree_param":{"num_deleted":"0","num_feature":"108","num_nodes":"31","size_leaf_vector":"1"}},{"base_weights":[6.0620887E-4,-3.87873E-1,3.0988625E-1,-5.961771E-1,-2.00696E-1,1.753768E-1,6.213188E-1,-7.0012456E-1,-5.1335627E-1,-2.9346782E-1,-1.0245945E-1,7.9792455E-2,3.0283102E-1,5.0534445E-1,7.3848796E-1,-3.5765883E-2,-1.6067643E-2,-2.6559243E-2,-5.5278684E-3,-1.5599704E-2,6.214016E-3,-6.0234955E-3,1.4978147E-2,3.0898768E-3,2.7224025E-2,1.428957E-2,3.8238388E-2,2.4239345E-2,5.0719198E-2,3.582209E-2,6.0113218E-2],"categories":[],"categories_nodes":[],"categories_segments":[],"categories_sizes":[],"default_left":[0,0,0,0,0,0,0,0,0,0,0,0,0,0,0,0,0,0,0,0,0,0,0,0,0,0,0,0,0,0,0],"id":11,"left_children":[1,3,5,7,9,11,13,15,17,19,21,23,25,27,29,-1,-1,-1,-1,-1,-1,-1,-1,-1,-1,-1,-1,-1,-1,-1,-1],"loss_changes":[1.3496322E3,1.9401025E2,2.6187494E2,1.9923462E1,2.3883965E1,5.3201767E1,2.5254944E1,5.76651E0,9.384735E0,1.0479095E1,9.275099E0,2.0854692E1,1.4516388E1,9.460098E0,8.708771E0,0E0,0E0,0E0,0E0,0E0,0E0,0E0,0E0,0E0,0E0,0E0,0E0,0E0,0E0,0E0,0E0],"parents":[2147483647,0,0,1,1,2,2,3,3,4,4,5,5,6,6,7,7,8,8,9,9,10,10,11,11,12,12,13,13,14,14],"right_children":[2,4,6,8,10,12,14,16,18,20,22,24,26,28,30,-1,-1,-1,-1,-1,-1,-1,-1,-1,-1,-1,-1,-1,-1,-1,-1],"split_conditions":[9E0,5E0,1.98E2,3E0,7E0,1.35E2,2.4E1,1E0,1E0,1E0,1E0,1E0,1E0,1E0,1E0,-3.5765883E-2,-1.6067643E-2,-2.6559243E-2,-5.5278684E-3,-1.5599704E-2,6.214016E-3,-6.0234955E-3,1.4978147E-2,3.0898768E-3,2.7224025E-2,1.428957E-2,3.8238388E-2,2.4239345E-2,5.0719198E-2,3.582209E-2,6.0113218E-2],"split_indices":[0,0,3,0,0,3,0,28,19,28,28,28,28,28,28,0,0,0,0,0,0,0,0,0,0,0,0,0,0,0,0],"split_type":[0,0,0,0,0,0,0,0,0,0,0,0,0,0,0,0,0,0,0,0,0,0,0,0,0,0,0,0,0,0,0],"sum_hessian":[1.1231E4,4.978E3,6.253E3,2.355E3,2.623E3,4.368E3,1.885E3,1.041E3,1.314E3,1.348E3,1.275E3,2.497E3,1.871E3,9.5E2,9.35E2,1E3,4.1E1,1.258E3,5.6E1,1.291E3,5.7E1,1.221E3,5.4E1,2.405E3,9.2E1,1.806E3,6.5E1,9.15E2,3.5E1,8.95E2,4E1],"tree_param":{"num_deleted":"0","num_feature":"108","num_nodes":"31","size_leaf_vector":"1"}},{"base_weights":[-3.17996E-4,-2.995114E-1,3.5388884E-1,-4.4299933E-1,-9.453187E-2,2.1750309E-1,6.025344E-1,-4.5861134E-1,-6.5103814E-2,-7.8769796E-2,-4.933957E-1,1.19102255E-1,3.0480313E-1,4.8380515E-1,6.8678916E-1,-2.6161386E-2,-1.8343134E-2,-4.510455E-3,1.0823981E-2,-7.7377814E-3,-1.8293412E-4,-1.9393139E-2,-2.922759E-2,5.244603E-3,2.688895E-2,1.4482073E-2,3.6812104E-2,2.316383E-2,4.603861E-2,3.327244E-2,5.7160158E-2],"categories":[],"categories_nodes":[],"categories_segments":[],"categories_sizes":[],"default_left":[0,0,0,0,0,0,0,0,0,0,0,0,0,0,0,0,0,0,0,0,0,0,0,0,0,0,0,0,0,0,0],"id":12,"left_children":[1,3,5,7,9,11,13,15,17,19,21,23,25,27,29,-1,-1,-1,-1,-1,-1,-1,-1,-1,-1,-1,-1,-1,-1,-1,-1],"loss_changes":[1.1882069E3,1.7872473E2,1.7397168E2,2.1061584E1,1.5703585E1,2.8458038E1,1.7854126E1,2.0160461E1,1.0304286E0,1.3754218E1,6.8717194E-1,9.23073E0,1.1279892E1,6.3729095E0,9.573425E0,0E0,0E0,0E0,0E0,0E0,0E0,0E0,0E0,0E0,0E0,0E0,0E0,0E0,0E0,0E0,0E0],"parents":[2147483647,0,0,1,1,2,2,3,3,4,4,5,5,6,6,7,7,8,8,9,9,10,10,11,11,12,12,13,13,14,14],"right_children":[2,4,6,8,10,12,14,16,18,20,22,24,26,28,30,-1,-1,-1,-1,-1,-1,-1,-1,-1,-1,-1,-1,-1,-1,-1,-1],"split_conditions":[1.04E2,6.3E1,2.01E2,1E0,1E0,1.4E2,2.5E2,4.5E1,4E0,8.2E1,2E1,1E0,1E0,1E0,1E0,-2.6161386E-2,-1.8343134E-2,-4.510455E-3,1.0823981E-2,-7.7377814E-3,-1.8293412E-4,-1.9393139E-2,-2.922759E-2,5.244603E-3,2.688895E-2,1.4482073E-2,3.6812104E-2,2.316383E-2,4.603861E-2,3.327244E-2,5.7160158E-2],"split_indices":[3,3,3,28,27,3,3,3,2,3,8,28,28,28,28,0,0,0,0,0,0,0,0,0,0,0,0,0,0,0,0],"split_type":[0,0,0,0,0,0,0,0,0,0,0,0,0,0,0,0,0,0,0,0,0,0,0,0,0,0,0,0,0,0,0],"sum_hessian":[1.121E4,6.077E3,5.133E3,3.574E3,2.503E3,3.316E3,1.817E3,3.432E3,1.42E2,2.409E3,9.4E1,1.56E3,1.756E3,7.57E2,1.06E3,2.011E3,1.421E3,1.31E2,1.1E1,1.197E3,1.212E3,4.6E1,4.8E1,1.51E3,5E1,1.698E3,5.8E1,7.25E2,3.2E1,1.015E3,4.5E1],"tree_param":{"num_deleted":"0","num_feature":"108","num_nodes":"31","size_leaf_vector":"1"}},{"base_weights":[1.0288854E-3,-3.9479896E-1,2.5544843E-1,-5.4560465E-1,-2.2226894E-1,7.131112E-2,4.6023697E-1,-5.6616735E-1,-2.0449363E-2,-2.4519035E-1,3.0830762E-1,4.680168E-2,5.9865856E-1,3.5430792E-1,6.253012E-1,-3.3194494E-2,-2.4406433E-2,-3.968572E-3,5.002025E-3,-1.3173886E-2,8.8084815E-3,1.899117E-2,1.23277195E-2,1.4066017E-3,2.3413246E-2,2.5904743E-2,3.3786174E-2,1.6534107E-2,4.364888E-2,3.01477E-2,5.641658E-2],"categories":[],"categories_nodes":[],"categories_segments":[],"categories_sizes":[],"default_left":[0,0,0,0,0,0,0,0,0,0,0,0,0,0,0,0,0,0,0,0,0,0,0,0,0,0,0,0,0,0,0],"id":13,"left_children":[1,3,5,7,9,11,13,15,17,19,21,23,25,27,29,-1,-1,-1,-1,-1,-1,-1,-1,-1,-1,-1,-1,-1,-1,-1,-1],"loss_changes":[1.1391904E3,1.1503662E2,2.5963278E2,2.5483948E1,2.5201385E1,4.685093E1,5.6779846E1,1.7002441E1,6.4689654E-1,1.5311134E1,2.861576E-1,2.7267157E1,6.495018E-1,2.407225E1,1.3629852E1,0E0,0E0,0E0,0E0,0E0,0E0,0E0,0E0,0E0,0E0,0E0,0E0,0E0,0E0,0E0,0E0],"parents":[2147483647,0,0,1,1,2,2,3,3,4,4,5,5,6,6,7,7,8,8,9,9,10,10,11,11,12,12,13,13,14,14],"right_children":[2,4,6,8,10,12,14,16,18,20,22,24,26,28,30,-1,-1,-1,-1,-1,-1,-1,-1,-1,-1,-1,-1,-1,-1,-1,-1],"split_conditions":[8E0,5E0,1.5E1,1E0,1E0,1E0,2.33E2,3E0,4E0,1E0,1.3E1,1E0,1.09E2,1E0,1E0,-3.3194494E-2,-2.4406433E-2,-3.968572E-3,5.002025E-3,-1.3173886E-2,8.8084815E-3,1.899117E-2,1.23277195E-2,1.4066017E-3,2.3413246E-2,2.5904743E-2,3.3786174E-2,1.6534107E-2,4.364888E-2,3.01477E-2,5.641658E-2],"split_indices":[0,0,0,13,13,13,3,0,0,19,8,19,3,13,13,0,0,0,0,0,0,0,0,0,0,0,0,0,0,0,0],"split_type":[0,0,0,0,0,0,0,0,0,0,0,0,0,0,0,0,0,0,0,0,0,0,0,0,0,0,0,0,0,0,0],"sum_hessian":[1.131E4,4.425E3,6.885E3,2.36E3,2.065E3,3.626E3,3.259E3,2.271E3,8.9E1,1.98E3,8.5E1,3.466E3,1.6E2,1.987E3,1.272E3,1.005E3,1.266E3,6E1,2.9E1,1.898E3,8.2E1,3.7E1,4.8E1,3.32E3,1.46E2,8.2E1,7.8E1,1.902E3,8.5E1,1.22E3,5.2E1],"tree_param":{"num_deleted":"0","num_feature":"108","num_nodes":"31","size_leaf_vector":"1"}},{"base_weights":[1.8036551E-3,-3.736076E-1,2.4319817E-1,-5.1855564E-1,-2.1028984E-1,8.721071E-2,4.630155E-1,-5.351521E-1,-2.7507931E-2,-2.3073958E-1,1.4659936E-2,6.498594E-2,5.8944786E-1,3.742563E-1,6.192787E-1,-3.129987E-2,-2.320677E-2,4.5458386E-3,-2.6491762E-3,-1.2427512E-2,8.753959E-3,2.3196153E-3,2.4658317E-2,2.5680779E-2,3.4861412E-2,1.7507372E-2,4.2941883E-2,2.9848713E-2,5.512462E-2],"categories":[],"categories_nodes":[],"categories_segments":[],"categories_sizes":[],"default_left":[0,0,0,0,0,0,0,0,0,0,0,0,0,0,0,0,0,0,0,0,0,0,0,0,0,0,0,0,0],"id":14,"left_children":[1,3,5,7,9,11,13,15,17,19,-1,21,23,25,27,-1,-1,-1,-1,-1,-1,-1,-1,-1,-1,-1,-1,-1,-1],"loss_changes":[1.0156036E3,1.0371893E2,2.3384314E2,1.8916931E1,2.1319023E1,4.450966E1,3.903363E1,1.4205994E1,2.371214E-1,1.4383659E1,0E0,3.0413666E1,1.0231628E0,2.0821594E1,1.0378326E1,0E0,0E0,0E0,0E0,0E0,0E0,0E0,0E0,0E0,0E0,0E0,0E0,0E0,0E0],"parents":[2147483647,0,0,1,1,2,2,3,3,4,4,5,5,6,6,7,7,8,8,9,9,11,11,12,12,13,13,14,14],"right_children":[2,4,6,8,10,12,14,16,18,20,-1,22,24,26,28,-1,-1,-1,-1,-1,-1,-1,-1,-1,-1,-1,-1,-1,-1],"split_conditions":[8E0,5E0,1.6E1,1E0,1E0,1E0,2.4E1,3E0,7E0,1E0,1.4659936E-2,1E0,1.2E1,1E0,1E0,-3.129987E-2,-2.320677E-2,4.5458386E-3,-2.6491762E-3,-1.2427512E-2,8.753959E-3,2.3196153E-3,2.4658317E-2,2.5680779E-2,3.4861412E-2,1.7507372E-2,4.2941883E-2,2.9848713E-2,5.512462E-2],"split_indices":[0,0,0,13,13,13,0,0,8,19,0,82,0,13,13,0,0,0,0,0,0,0,0,0,0,0,0,0,0],"split_type":[0,0,0,0,0,0,0,0,0,0,0,0,0,0,0,0,0,0,0,0,0,0,0,0,0,0,0,0,0],"sum_hessian":[1.1205E4,4.385E3,6.82E3,2.322E3,2.063E3,3.99E3,2.83E3,2.246E3,7.6E1,1.983E3,8E1,3.822E3,1.68E2,1.807E3,1.023E3,9.82E2,1.264E3,1.3E1,6.3E1,1.9E3,8.3E1,3.664E3,1.58E2,1.02E2,6.6E1,1.723E3,8.4E1,9.8E2,4.3E1],"tree_param":{"num_deleted":"0","num_feature":"108","num_nodes":"29","size_leaf_vector":"1"}},{"base_weights":[-2.198794E-4,-3.5936815E-1,2.3039833E-1,-4.9859712E-1,-2.0199539E-1,9.204915E-2,4.5667475E-1,-5.1599866E-1,-9.710429E-3,-2.2192304E-1,2.8164777E-1,7.26385E-2,5.536206E-1,3.8855106E-1,6.431581E-1,-2.824046E-2,-1.9627793E-2,-4.290031E-3,2.6534197E-3,-1.1896421E-2,8.570615E-3,1.6087262E-2,8.867786E-3,-6.304496E-4,8.521848E-3,2.2935165E-2,3.2323357E-2,1.8252302E-2,4.233818E-2,3.1087682E-2,5.4737907E-2],"categories":[],"categories_nodes":[],"categories_segments":[],"categories_sizes":[],"default_left":[0,0,0,0,0,0,0,0,0,0,0,0,0,0,0,0,0,0,0,0,0,0,0,0,0,0,0,0,0,0,0],"id":15,"left_children":[1,3,5,7,9,11,13,15,17,19,21,23,25,27,29,-1,-1,-1,-1,-1,-1,-1,-1,-1,-1,-1,-1,-1,-1,-1,-1],"loss_changes":[9.2922626E2,9.6022156E1,2.1383475E2,1.9791687E1,1.992617E1,3.795662E1,3.267871E1,1.33172E1,3.9147833E-1,1.2505829E1,2.8584814E-1,3.394238E1,1.2104416E0,2.0165222E1,6.0083923E0,0E0,0E0,0E0,0E0,0E0,0E0,0E0,0E0,0E0,0E0,0E0,0E0,0E0,0E0,0E0,0E0],"parents":[2147483647,0,0,1,1,2,2,3,3,4,4,5,5,6,6,7,7,8,8,9,9,10,10,11,11,12,12,13,13,14,14],"right_children":[2,4,6,8,10,12,14,16,18,20,22,24,26,28,30,-1,-1,-1,-1,-1,-1,-1,-1,-1,-1,-1,-1,-1,-1,-1,-1],"split_conditions":[8E0,5E0,1.68E2,1E0,1E0,1E0,2.7E1,4E0,3E0,1E0,2.4E1,1.2E1,1.09E2,1E0,1E0,-2.824046E-2,-1.9627793E-2,-4.290031E-3,2.6534197E-3,-1.1896421E-2,8.570615E-3,1.6087262E-2,8.867786E-3,-6.304496E-4,8.521848E-3,2.2935165E-2,3.2323357E-2,1.8252302E-2,4.233818E-2,3.1087682E-2,5.4737907E-2],"split_indices":[0,0,3,13,13,13,0,0,0,28,8,0,3,13,13,0,0,0,0,0,0,0,0,0,0,0,0,0,0,0,0],"split_type":[0,0,0,0,0,0,0,0,0,0,0,0,0,0,0,0,0,0,0,0,0,0,0,0,0,0,0,0,0,0,0],"sum_hessian":[1.1217E4,4.386E3,6.831E3,2.326E3,2.06E3,4.24E3,2.591E3,2.246E3,8E1,1.979E3,8.1E1,4.07E3,1.7E2,1.9E3,6.91E2,1.607E3,6.39E2,3.6E1,4.4E1,1.902E3,7.7E1,5.7E1,2.4E1,2.175E3,1.895E3,8.7E1,8.3E1,1.809E3,9.1E1,6.62E2,2.9E1],"tree_param":{"num_deleted":"0","num_feature":"108","num_nodes":"31","size_leaf_vector":"1"}},{"base_weights":[-5.197613E-4,-2.7372307E-1,2.7008358E-1,-4.229402E-1,-9.340653E-2,1.4851405E-1,4.5492968E-1,-5.066126E-1,-3.243144E-1,-1.1435928E-1,3.4595034E-1,1.2807716E-1,5.8514553E-1,4.1076466E-1,6.99043E-1,-2.6250606E-2,-2.3954145E-3,-1.7017161E-2,7.5354436E-3,-6.560822E-3,1.361537E-2,1.2155543E-2,1.8908832E-2,5.549233E-3,2.7291356E-2,2.5078079E-2,3.26006E-2,1.9547967E-2,4.4348236E-2,3.2696E-2,4.3556094E-2],"categories":[],"categories_nodes":[],"categories_segments":[],"categories_sizes":[],"default_left":[0,0,0,0,0,0,0,0,0,0,0,0,0,0,0,0,0,0,0,0,0,0,0,0,0,0,0,0,0,0,0],"id":16,"left_children":[1,3,5,7,9,11,13,15,17,19,21,23,25,27,29,-1,-1,-1,-1,-1,-1,-1,-1,-1,-1,-1,-1,-1,-1,-1,-1],"loss_changes":[8.19511E2,1.4837573E2,1.2507709E2,2.4741028E1,2.3044699E1,2.9916534E1,2.3528687E1,1.3740356E1,1.0619629E1,1.5587915E1,2.8587246E-1,2.2874367E1,5.113182E-1,1.7318054E1,2.047058E0,0E0,0E0,0E0,0E0,0E0,0E0,0E0,0E0,0E0,0E0,0E0,0E0,0E0,0E0,0E0,0E0],"parents":[2147483647,0,0,1,1,2,2,3,3,4,4,5,5,6,6,7,7,8,8,9,9,10,10,11,11,12,12,13,13,14,14],"right_children":[2,4,6,8,10,12,14,16,18,20,22,24,26,28,30,-1,-1,-1,-1,-1,-1,-1,-1,-1,-1,-1,-1,-1,-1,-1,-1],"split_conditions":[1E1,6E0,1.8E1,4E0,1E0,1E0,3.2E1,1E0,1E0,1E0,7E0,1E0,1.3E1,1E0,4.4E1,-2.6250606E-2,-2.3954145E-3,-1.7017161E-2,7.5354436E-3,-6.560822E-3,1.361537E-2,1.2155543E-2,1.8908832E-2,5.549233E-3,2.7291356E-2,2.5078079E-2,3.26006E-2,1.9547967E-2,4.4348236E-2,3.2696E-2,4.3556094E-2],"split_indices":[0,0,0,0,13,13,0,13,13,82,0,82,0,82,0,0,0,0,0,0,0,0,0,0,0,0,0,0,0,0,0],"split_type":[0,0,0,0,0,0,0,0,0,0,0,0,0,0,0,0,0,0,0,0,0,0,0,0,0,0,0,0,0,0,0],"sum_hessian":[1.1083E4,5.515E3,5.568E3,3.017E3,2.498E3,3.36E3,2.208E3,1.63E3,1.387E3,2.385E3,1.13E2,3.211E3,1.49E2,1.872E3,3.36E2,1.567E3,6.3E1,1.342E3,4.5E1,2.286E3,9.9E1,2.9E1,8.4E1,3.086E3,1.25E2,7E1,7.9E1,1.799E3,7.3E1,2.7E2,6.6E1],"tree_param":{"num_deleted":"0","num_feature":"108","num_nodes":"31","size_leaf_vector":"1"}},{"base_weights":[-2.9801277E-3,-2.605207E-1,2.578574E-1,-4.0418905E-1,-8.651281E-2,1.4676552E-1,4.467071E-1,-4.9039438E-1,-3.0311868E-1,-1.05791844E-1,3.4478694E-1,1.2613662E-1,5.648637E-1,3.9633703E-1,6.3602024E-1,-2.5357967E-2,-3.2327473E-3,-1.59726E-2,6.6200956E-3,-6.2564514E-3,1.4811332E-2,1.5418055E-2,2.3740916E-2,5.445776E-3,2.7133107E-2,2.6175229E-2,3.660755E-2,1.8653696E-2,4.295855E-2,3.0616581E-2,4.9764138E-2],"categories":[],"categories_nodes":[],"categories_segments":[],"categories_sizes":[],"default_left":[0,0,0,0,0,0,0,0,0,0,0,0,0,0,0,0,0,0,0,0,0,0,0,0,0,0,0,0,0,0,0],"id":17,"left_children":[1,3,5,7,9,11,13,15,17,19,21,23,25,27,29,-1,-1,-1,-1,-1,-1,-1,-1,-1,-1,-1,-1,-1,-1,-1,-1],"loss_changes":[7.500228E2,1.404118E2,1.16308685E2,2.6660706E1,2.1173311E1,3.006417E1,1.933429E1,1.180835E1,1.0136322E1,1.8958755E1,3.698635E-1,2.383424E1,7.514038E-1,1.7175766E1,3.0500488E0,0E0,0E0,0E0,0E0,0E0,0E0,0E0,0E0,0E0,0E0,0E0,0E0,0E0,0E0,0E0,0E0],"parents":[2147483647,0,0,1,1,2,2,3,3,4,4,5,5,6,6,7,7,8,8,9,9,10,10,11,11,12,12,13,13,14,14],"right_children":[2,4,6,8,10,12,14,16,18,20,22,24,26,28,30,-1,-1,-1,-1,-1,-1,-1,-1,-1,-1,-1,-1,-1,-1,-1,-1],"split_conditions":[1E1,6E0,1.87E2,4E0,1E0,1E0,3E1,1E0,1E0,1E0,9.4E1,1E0,1.7E1,1E0,1E0,-2.5357967E-2,-3.2327473E-3,-1.59726E-2,6.6200956E-3,-6.2564514E-3,1.4811332E-2,1.5418055E-2,2.3740916E-2,5.445776E-3,2.7133107E-2,2.6175229E-2,3.660755E-2,1.8653696E-2,4.295855E-2,3.0616581E-2,4.9764138E-2],"split_indices":[0,0,3,0,13,13,0,13,13,19,3,19,0,13,28,0,0,0,0,0,0,0,0,0,0,0,0,0,0,0,0],"split_type":[0,0,0,0,0,0,0,0,0,0,0,0,0,0,0,0,0,0,0,0,0,0,0,0,0,0,0,0,0,0,0],"sum_hessian":[1.1163E4,5.617E3,5.546E3,3.076E3,2.541E3,3.493E3,2.053E3,1.658E3,1.418E3,2.433E3,1.08E2,3.33E3,1.63E2,1.624E3,4.29E2,1.595E3,6.3E1,1.367E3,5.1E1,2.322E3,1.11E2,8.7E1,2.1E1,3.199E3,1.31E2,1.34E2,2.9E1,1.548E3,7.6E1,4.05E2,2.4E1],"tree_param":{"num_deleted":"0","num_feature":"108","num_nodes":"31","size_leaf_vector":"1"}},{"base_weights":[-4.1122438E-4,-2.2590588E-1,2.6411563E-1,-3.209451E-1,-6.4140856E-2,1.6295414E-1,4.4820797E-1,-3.3529118E-1,2.1997904E-2,-1.3498387E-1,2.5677584E-2,1.4899679E-1,5.6650066E-1,4.285868E-1,4.3317284E-2,-1.7475996E-2,1.6526142E-3,-2.453222E-4,1.067093E-2,-7.2257775E-3,1.2920402E-2,2.2642156E-4,1.6823234E-2,6.670297E-3,2.6082983E-2,2.4845337E-2,3.388036E-2,2.0598212E-2,4.1367024E-2],"categories":[],"categories_nodes":[],"categories_segments":[],"categories_sizes":[],"default_left":[0,0,0,0,0,0,0,0,0,0,0,0,0,0,0,0,0,0,0,0,0,0,0,0,0,0,0,0,0],"id":18,"left_children":[1,3,5,7,9,11,13,15,17,19,21,23,25,27,-1,-1,-1,-1,-1,-1,-1,-1,-1,-1,-1,-1,-1,-1,-1],"loss_changes":[6.687294E2,9.302298E1,9.600336E1,1.8761993E1,1.4262967E1,1.8677238E1,1.4634399E1,1.9188568E1,7.941547E-1,4.7357006E0,6.499058E0,1.8644852E1,5.2158356E-1,1.1252106E1,0E0,0E0,0E0,0E0,0E0,0E0,0E0,0E0,0E0,0E0,0E0,0E0,0E0,0E0,0E0],"parents":[2147483647,0,0,1,1,2,2,3,3,4,4,5,5,6,6,7,7,8,8,9,9,10,10,11,11,12,12,13,13],"right_children":[2,4,6,8,10,12,14,16,18,20,22,24,26,28,-1,-1,-1,-1,-1,-1,-1,-1,-1,-1,-1,-1,-1,-1,-1],"split_conditions":[1.05E2,6.7E1,2.01E2,1E0,1E0,1E0,1E0,1E0,6E1,1E0,1E0,1E0,1.51E2,1E0,4.3317284E-2,-1.7475996E-2,1.6526142E-3,-2.453222E-4,1.067093E-2,-7.2257775E-3,1.2920402E-2,2.2642156E-4,1.6823234E-2,6.670297E-3,2.6082983E-2,2.4845337E-2,3.388036E-2,2.0598212E-2,4.1367024E-2],"split_indices":[3,3,3,28,6,28,28,19,3,28,28,19,3,19,0,0,0,0,0,0,0,0,0,0,0,0,0,0,0],"split_type":[0,0,0,0,0,0,0,0,0,0,0,0,0,0,0,0,0,0,0,0,0,0,0,0,0,0,0,0,0],"sum_hessian":[1.1209E4,6.051E3,5.158E3,3.811E3,2.24E3,3.33E3,1.828E3,3.658E3,1.53E2,1.252E3,9.88E2,3.22E3,1.1E2,1.748E3,8E1,3.522E3,1.36E2,1.35E2,1.8E1,1.223E3,2.9E1,9.26E2,6.2E1,3.092E3,1.28E2,7.1E1,3.9E1,1.68E3,6.8E1],"tree_param":{"num_deleted":"0","num_feature":"108","num_nodes":"29","size_leaf_vector":"1"}},{"base_weights":[-1.4412523E-3,-2.9691127E-1,1.8919177E-1,-4.0985042E-1,-1.6537336E-1,6.194949E-2,3.6552656E-1,-4.244742E-1,-7.452287E-2,-2.3701255E-1,-8.560252E-2,-7.759557E-3,1.4629748E-1,2.803579E-1,4.791109E-1,-2.1906404E-2,-3.4569209E-3,-5.890827E-3,3.003542E-3,-1.2591799E-2,6.144106E-3,-5.148222E-3,8.640706E-3,-1.2371382E-3,1.6307784E-2,6.296889E-3,2.3120178E-2,1.32089695E-2,3.4661025E-2,2.3016602E-2,4.4231158E-2],"categories":[],"categories_nodes":[],"categories_segments":[],"categories_sizes":[],"default_left":[0,0,0,0,0,0,0,0,0,0,0,0,0,0,0,0,0,0,0,0,0,0,0,0,0,0,0,0,0,0,0],"id":19,"left_children":[1,3,5,7,9,11,13,15,17,19,21,23,25,27,29,-1,-1,-1,-1,-1,-1,-1,-1,-1,-1,-1,-1,-1,-1,-1,-1],"loss_changes":[6.312492E2,6.522336E1,1.5281981E2,1.1560883E1,1.1592022E1,2.3273455E1,2.7484436E1,1.0958801E1,5.8978295E-1,5.73925E0,4.338398E0,1.2302691E1,1.1468338E1,1.0731171E1,8.898376E0,0E0,0E0,0E0,0E0,0E0,0E0,0E0,0E0,0E0,0E0,0E0,0E0,0E0,0E0,0E0,0E0],"parents":[2147483647,0,0,1,1,2,2,3,3,4,4,5,5,6,6,7,7,8,8,9,9,10,10,11,11,12,12,13,13,14,14],"right_children":[2,4,6,8,10,12,14,16,18,20,22,24,26,28,30,-1,-1,-1,-1,-1,-1,-1,-1,-1,-1,-1,-1,-1,-1,-1,-1],"split_conditions":[8E0,5E0,1.59E2,1E0,1E0,1E0,2.35E2,1E0,4E0,1E0,1E0,1E0,1E0,1E0,1E0,-2.1906404E-2,-3.4569209E-3,-5.890827E-3,3.003542E-3,-1.2591799E-2,6.144106E-3,-5.148222E-3,8.640706E-3,-1.2371382E-3,1.6307784E-2,6.296889E-3,2.3120178E-2,1.32089695E-2,3.4661025E-2,2.3016602E-2,4.4231158E-2],"split_indices":[0,0,3,19,6,6,3,28,0,15,28,15,28,28,28,0,0,0,0,0,0,0,0,0,0,0,0,0,0,0,0],"split_type":[0,0,0,0,0,0,0,0,0,0,0,0,0,0,0,0,0,0,0,0,0,0,0,0,0,0,0,0,0,0,0],"sum_hessian":[1.1205E4,4.394E3,6.811E3,2.363E3,2.031E3,3.957E3,2.854E3,2.264E3,9.9E1,1.069E3,9.62E2,2.167E3,1.79E3,1.633E3,1.221E3,2.18E3,8.4E1,7.5E1,2.4E1,1.027E3,4.2E1,9.02E2,6E1,2.063E3,1.04E2,1.683E3,1.07E2,1.573E3,6E1,1.169E3,5.2E1],"tree_param":{"num_deleted":"0","num_feature":"108","num_nodes":"31","size_leaf_vector":"1"}},{"base_weights":[2.334043E-3,-2.0400979E-1,2.4924769E-1,-3.5450923E-1,-5.457768E-2,1.6449022E-1,4.1801682E-1,-4.287292E-1,-2.6407933E-1,-7.2152585E-2,2.9826653E-1,1.477157E-1,5.5212456E-1,3.760397E-1,5.7632524E-1,-2.065034E-2,-3.7350114E-2,-1.389788E-2,4.987812E-3,-6.5485486E-3,4.0167015E-5,1.8366067E-2,1.2260026E-2,6.674529E-3,2.5693972E-2,2.344036E-2,3.1108597E-2,1.7941577E-2,3.7584808E-2,2.5467742E-2,3.2808937E-2],"categories":[],"categories_nodes":[],"categories_segments":[],"categories_sizes":[],"default_left":[0,0,0,0,0,0,0,0,0,0,0,0,0,0,0,0,0,0,0,0,0,0,0,0,0,0,0,0,0,0,0],"id":20,"left_children":[1,3,5,7,9,11,13,15,17,19,21,23,25,27,29,-1,-1,-1,-1,-1,-1,-1,-1,-1,-1,-1,-1,-1,-1,-1,-1],"loss_changes":[5.686429E2,1.367165E2,7.261212E1,2.0216522E1,1.8947596E1,2.1922493E1,1.1067047E1,8.008179E0,6.9353027E0,1.2478769E1,4.412794E-1,1.6833717E1,5.25383E-1,8.424835E0,1.5589066E0,0E0,0E0,0E0,0E0,0E0,0E0,0E0,0E0,0E0,0E0,0E0,0E0,0E0,0E0,0E0,0E0],"parents":[2147483647,0,0,1,1,2,2,3,3,4,4,5,5,6,6,7,7,8,8,9,9,10,10,11,11,12,12,13,13,14,14],"right_children":[2,4,6,8,10,12,14,16,18,20,22,24,26,28,30,-1,-1,-1,-1,-1,-1,-1,-1,-1,-1,-1,-1,-1,-1,-1,-1],"split_conditions":[1.1E1,6E0,2E1,4E0,1E0,1E0,3.2E1,1E0,1E0,1E0,1.7E1,1E0,1.5E1,1E0,3.8E1,-2.065034E-2,-3.7350114E-2,-1.389788E-2,4.987812E-3,-6.5485486E-3,4.0167015E-5,1.8366067E-2,1.2260026E-2,6.674529E-3,2.5693972E-2,2.344036E-2,3.1108597E-2,1.7941577E-2,3.7584808E-2,2.5467742E-2,3.2808937E-2],"split_indices":[0,0,0,0,19,19,0,27,28,6,8,28,0,28,0,0,0,0,0,0,0,0,0,0,0,0,0,0,0,0,0],"split_type":[0,0,0,0,0,0,0,0,0,0,0,0,0,0,0,0,0,0,0,0,0,0,0,0,0,0,0,0,0,0,0],"sum_hessian":[1.1159E4,6.079E3,5.08E3,3.028E3,3.051E3,3.383E3,1.697E3,1.661E3,1.367E3,2.907E3,1.44E2,3.244E3,1.39E2,1.344E3,3.53E2,1.585E3,7.6E1,1.317E3,5E1,1.609E3,1.298E3,6E1,8.4E1,3.124E3,1.2E2,6.7E1,7.2E1,1.287E3,5.7E1,1.96E2,1.57E2],"tree_param":{"num_deleted":"0","num_feature":"108","num_nodes":"31","size_leaf_vector":"1"}},{"base_weights":[1.3701342E-3,-1.9004214E-1,2.3171854E-1,-3.3123353E-1,-5.18875E-2,1.5199305E-1,3.8393012E-1,-4.367738E-1,-2.7874255E-1,-6.760154E-2,2.8322873E-1,1.388408E-1,5.1356167E-1,3.6675823E-1,3.8394716E-2,-2.2658361E-2,-6.061786E-3,-1.3174345E-2,-3.0207535E-2,-4.1997284E-3,1.3042735E-2,3.6237761E-3,1.4950219E-2,6.2399744E-3,2.4465997E-2,2.205213E-2,3.162795E-2,1.5833711E-2,2.5110228E-2],"categories":[],"categories_nodes":[],"categories_segments":[],"categories_sizes":[],"default_left":[0,0,0,0,0,0,0,0,0,0,0,0,0,0,0,0,0,0,0,0,0,0,0,0,0,0,0,0,0],"id":21,"left_children":[1,3,5,7,9,11,13,15,17,19,21,23,25,27,-1,-1,-1,-1,-1,-1,-1,-1,-1,-1,-1,-1,-1,-1,-1],"loss_changes":[4.9479486E2,1.19536606E2,6.174591E1,1.6669739E1,1.6338572E1,1.583091E1,1.1256805E1,5.1436615E0,9.903488E0,1.5965095E1,4.404707E-1,1.5824516E1,7.3067856E-1,1.1217209E1,0E0,0E0,0E0,0E0,0E0,0E0,0E0,0E0,0E0,0E0,0E0,0E0,0E0,0E0,0E0],"parents":[2147483647,0,0,1,1,2,2,3,3,4,4,5,5,6,6,7,7,8,8,9,9,10,10,11,11,12,12,13,13],"right_children":[2,4,6,8,10,12,14,16,18,20,22,24,26,28,-1,-1,-1,-1,-1,-1,-1,-1,-1,-1,-1,-1,-1,-1,-1],"split_conditions":[1.1E1,6E0,2.04E2,3E0,1E0,1E0,1E0,1E0,1E0,1E0,4.5E1,1E0,1.6E1,3E1,3.8394716E-2,-2.2658361E-2,-6.061786E-3,-1.3174345E-2,-3.0207535E-2,-4.1997284E-3,1.3042735E-2,3.6237761E-3,1.4950219E-2,6.2399744E-3,2.4465997E-2,2.205213E-2,3.162795E-2,1.5833711E-2,2.5110228E-2],"split_indices":[0,0,3,0,19,28,19,15,27,15,3,19,0,0,0,0,0,0,0,0,0,0,0,0,0,0,0,0,0],"split_type":[0,0,0,0,0,0,0,0,0,0,0,0,0,0,0,0,0,0,0,0,0,0,0,0,0,0,0,0,0],"sum_hessian":[1.122E4,6.128E3,5.092E3,3.03E3,3.098E3,3.343E3,1.749E3,1.004E3,2.026E3,2.96E3,1.38E2,3.227E3,1.16E2,1.676E3,7.3E1,9.54E2,5E1,1.937E3,8.9E1,2.82E3,1.4E2,1E1,1.28E2,3.104E3,1.23E2,7.5E1,4.1E1,1.226E3,4.5E2],"tree_param":{"num_deleted":"0","num_feature":"108","num_nodes":"29","size_leaf_vector":"1"}},{"base_weights":[-1.5515157E-3,-1.9958258E-1,1.6270529E-1,-1.8554951E-1,-5.305423E-1,3.2377493E-2,2.5175428E-1,-1.9925582E-1,1.06529295E-1,-5.721825E-1,-3.7838635E-1,-3.4536447E-2,1.12254E-1,-9.35908E-3,2.7621922E-1,-1.3076866E-2,-6.414442E-3,2.1571252E-3,7.7116326E-3,-2.5589515E-2,-3.1815935E-2,-8.783531E-3,-2.1088755E-2,-2.478664E-3,1.6321508E-2,4.6679713E-3,1.881445E-2,-4.1574445E-3,3.6235624E-3,1.3074699E-2,3.2775655E-2],"categories":[],"categories_nodes":[],"categories_segments":[],"categories_sizes":[],"default_left":[0,0,0,0,0,0,0,0,0,0,0,0,0,0,0,0,0,0,0,0,0,0,0,0,0,0,0,0,0,0,0],"id":22,"left_children":[1,3,5,7,9,11,13,15,17,19,21,23,25,27,29,-1,-1,-1,-1,-1,-1,-1,-1,-1,-1,-1,-1,-1,-1,-1,-1],"loss_changes":[3.6252396E2,2.3369598E1,7.069292E1,1.943335E1,1.0823326E0,1.322704E1,2.31212E1,2.0439575E1,6.525264E-1,2.902031E-1,3.3929873E-1,7.32742E0,5.592269E0,1.88392E0,1.8309982E1,0E0,0E0,0E0,0E0,0E0,0E0,0E0,0E0,0E0,0E0,0E0,0E0,0E0,0E0,0E0,0E0],"parents":[2147483647,0,0,1,1,2,2,3,3,4,4,5,5,6,6,7,7,8,8,9,9,10,10,11,11,12,12,13,13,14,14],"right_children":[2,4,6,8,10,12,14,16,18,20,22,24,26,28,30,-1,-1,-1,-1,-1,-1,-1,-1,-1,-1,-1,-1,-1,-1,-1,-1],"split_conditions":[4E0,1E0,2E0,1E0,2E0,1E0,1E0,1E0,1E0,2.3E1,1E1,1E0,1E0,1E0,1E0,-1.3076866E-2,-6.414442E-3,2.1571252E-3,7.7116326E-3,-2.5589515E-2,-3.1815935E-2,-8.783531E-3,-2.1088755E-2,-2.478664E-3,1.6321508E-2,4.6679713E-3,1.881445E-2,-4.1574445E-3,3.6235624E-3,1.3074699E-2,3.2775655E-2],"split_indices":[1,74,7,15,4,6,4,6,4,8,8,15,82,6,82,0,0,0,0,0,0,0,0,0,0,0,0,0,0,0,0],"split_type":[0,0,0,0,0,0,0,0,0,0,0,0,0,0,0,0,0,0,0,0,0,0,0,0,0,0,0,0,0,0,0],"sum_hessian":[1.1143E4,5.052E3,6.091E3,4.848E3,2.04E2,2.473E3,3.618E3,4.631E3,2.17E2,1.58E2,4.6E1,1.346E3,1.127E3,3.1E2,3.308E3,2.465E3,2.166E3,9.4E1,1.23E2,8.6E1,7.2E1,9E0,3.7E1,1.293E3,5.3E1,1.053E3,7.4E1,1.63E2,1.47E2,3.186E3,1.22E2],"tree_param":{"num_deleted":"0","num_feature":"108","num_nodes":"31","size_leaf_vector":"1"}},{"base_weights":[1.0938804E-3,-1.9486743E-1,1.9408536E-1,-3.3795035E-1,-8.926262E-2,1.1442747E-1,3.4774914E-1,-3.5620615E-1,7.200156E-2,-1.0756347E-1,3.2612342E-1,9.696944E-2,5.094923E-1,3.2792416E-1,3.96115E-2,-1.8587016E-2,-1.2737334E-3,1.2649661E-4,6.3401605E-3,-6.195962E-3,1.1723321E-2,1.2201062E-2,1.8336946E-2,4.069032E-3,2.2410376E-2,2.2703273E-2,3.0687287E-2,1.3495699E-2,2.1486549E-2],"categories":[],"categories_nodes":[],"categories_segments":[],"categories_sizes":[],"default_left":[0,0,0,0,0,0,0,0,0,0,0,0,0,0,0,0,0,0,0,0,0,0,0,0,0,0,0,0,0],"id":23,"left_children":[1,3,5,7,9,11,13,15,17,19,21,23,25,27,-1,-1,-1,-1,-1,-1,-1,-1,-1,-1,-1,-1,-1,-1,-1],"loss_changes":[4.2599164E2,8.442102E1,6.942525E1,1.7785156E1,2.4490454E1,2.5738678E1,1.6808731E1,1.1663239E1,3.880095E-1,1.7270256E1,3.6401558E-1,1.9576336E1,6.343117E-1,1.0845215E1,0E0,0E0,0E0,0E0,0E0,0E0,0E0,0E0,0E0,0E0,0E0,0E0,0E0,0E0,0E0],"parents":[2147483647,0,0,1,1,2,2,3,3,4,4,5,5,6,6,7,7,8,8,9,9,10,10,11,11,12,12,13,13],"right_children":[2,4,6,8,10,12,14,16,18,20,22,24,26,28,-1,-1,-1,-1,-1,-1,-1,-1,-1,-1,-1,-1,-1,-1,-1],"split_conditions":[1E1,5E0,1.9E1,1E0,1E0,1E0,1E0,1E0,3E0,1E0,7E0,1E0,1.57E2,2.7E1,3.96115E-2,-1.8587016E-2,-1.2737334E-3,1.2649661E-4,6.3401605E-3,-6.195962E-3,1.1723321E-2,1.2201062E-2,1.8336946E-2,4.069032E-3,2.2410376E-2,2.2703273E-2,3.0687287E-2,1.3495699E-2,2.1486549E-2],"split_indices":[0,0,0,13,13,13,13,19,0,19,0,19,3,0,0,0,0,0,0,0,0,0,0,0,0,0,0,0,0],"split_type":[0,0,0,0,0,0,0,0,0,0,0,0,0,0,0,0,0,0,0,0,0,0,0,0,0,0,0,0,0],"sum_hessian":[1.1262E4,5.588E3,5.674E3,2.372E3,3.216E3,3.738E3,1.936E3,2.271E3,1.01E2,3.081E3,1.35E2,3.581E3,1.57E2,1.855E3,8.1E1,2.169E3,1.02E2,4.5E1,5.6E1,2.941E3,1.4E2,4.7E1,8.8E1,3.43E3,1.51E2,1.06E2,5.1E1,1.184E3,6.71E2],"tree_param":{"num_deleted":"0","num_feature":"108","num_nodes":"29","size_leaf_vector":"1"}},{"base_weights":[-3.1723992E-3,-1.611369E-1,2.1511686E-1,-2.4676743E-1,-3.777357E-2,1.4678966E-1,3.55088E-1,-2.6177064E-1,1.3971612E-1,-5.498382E-2,3.340255E-1,1.2977475E-1,5.3948E-1,3.3492893E-1,3.8100865E-2,-1.37108145E-2,2.6849406E-3,1.2894417E-2,5.383683E-3,-3.507165E-3,1.42365685E-2,1.46001205E-2,2.0026542E-2,5.8129765E-3,2.4054881E-2,2.3723628E-2,2.9724745E-2,1.5899202E-2,3.482843E-2],"categories":[],"categories_nodes":[],"categories_segments":[],"categories_sizes":[],"default_left":[0,0,0,0,0,0,0,0,0,0,0,0,0,0,0,0,0,0,0,0,0,0,0,0,0,0,0,0,0],"id":24,"left_children":[1,3,5,7,9,11,13,15,17,19,21,23,25,27,-1,-1,-1,-1,-1,-1,-1,-1,-1,-1,-1,-1,-1,-1,-1],"loss_changes":[3.8626703E2,6.8643936E1,4.4926605E1,2.2279602E1,1.7064653E1,2.1057182E1,1.2394302E1,1.4514282E1,5.174923E-1,1.3136781E1,2.1282673E-1,1.43406105E1,1.864357E-1,8.792709E0,0E0,0E0,0E0,0E0,0E0,0E0,0E0,0E0,0E0,0E0,0E0,0E0,0E0,0E0,0E0],"parents":[2147483647,0,0,1,1,2,2,3,3,4,4,5,5,6,6,7,7,8,8,9,9,10,10,11,11,12,12,13,13],"right_children":[2,4,6,8,10,12,14,16,18,20,22,24,26,28,-1,-1,-1,-1,-1,-1,-1,-1,-1,-1,-1,-1,-1,-1,-1],"split_conditions":[1.13E2,6.7E1,2.15E2,1E0,1E0,1E0,1E0,1E0,7E0,1E0,9.4E1,1E0,1.53E2,1E0,3.8100865E-2,-1.37108145E-2,2.6849406E-3,1.2894417E-2,5.383683E-3,-3.507165E-3,1.42365685E-2,1.46001205E-2,2.0026542E-2,5.8129765E-3,2.4054881E-2,2.3723628E-2,2.9724745E-2,1.5899202E-2,3.482843E-2],"split_indices":[3,3,3,13,13,13,13,28,8,28,3,28,3,28,0,0,0,0,0,0,0,0,0,0,0,0,0,0,0],"split_type":[0,0,0,0,0,0,0,0,0,0,0,0,0,0,0,0,0,0,0,0,0,0,0,0,0,0,0,0,0],"sum_hessian":[1.12E4,6.498E3,4.702E3,3.835E3,2.663E3,3.161E3,1.541E3,3.692E3,1.43E2,2.546E3,1.17E2,3.031E3,1.3E2,1.47E3,7.1E1,3.552E3,1.4E2,2.9E1,1.14E2,2.438E3,1.08E2,7.5E1,4.2E1,2.92E3,1.11E2,6.4E1,6.6E1,1.406E3,6.4E1],"tree_param":{"num_deleted":"0","num_feature":"108","num_nodes":"29","size_leaf_vector":"1"}},{"base_weights":[4.6383477E-5,-2.2285748E-1,1.4518696E-1,-3.4867382E-1,-1.4658234E-1,3.719529E-2,2.6764283E-1,-3.6306652E-1,2.3303183E-2,-1.6044345E-1,2.3029536E-1,1.9242227E-2,4.0437052E-1,2.4910851E-1,6.536116E-1,-1.8988395E-2,-2.0078933E-3,-1.9007456E-3,2.635365E-3,-8.661971E-3,8.235923E-3,1.0155956E-2,1.5504112E-2,2.2170103E-4,1.7078051E-2,1.6915118E-2,2.2827838E-2,9.075586E-3,1.7239219E-2,2.6039505E-2,3.644969E-2],"categories":[],"categories_nodes":[],"categories_segments":[],"categories_sizes":[],"default_left":[0,0,0,0,0,0,0,0,0,0,0,0,0,0,0,0,0,0,0,0,0,0,0,0,0,0,0,0,0,0,0],"id":25,"left_children":[1,3,5,7,9,11,13,15,17,19,21,23,25,27,29,-1,-1,-1,-1,-1,-1,-1,-1,-1,-1,-1,-1,-1,-1,-1,-1],"loss_changes":[3.6228207E2,4.232773E1,8.967668E1,8.927826E0,1.4408039E1,2.3756092E1,2.2571533E1,8.635147E0,1.1559293E-1,1.1071205E1,1.4951038E-1,1.6407932E1,4.247818E-1,1.9559448E1,1.0721397E0,0E0,0E0,0E0,0E0,0E0,0E0,0E0,0E0,0E0,0E0,0E0,0E0,0E0,0E0,0E0,0E0],"parents":[2147483647,0,0,1,1,2,2,3,3,4,4,5,5,6,6,7,7,8,8,9,9,10,10,11,11,12,12,13,13,14,14],"right_children":[2,4,6,8,10,12,14,16,18,20,22,24,26,28,30,-1,-1,-1,-1,-1,-1,-1,-1,-1,-1,-1,-1,-1,-1,-1,-1],"split_conditions":[8E0,4E0,1.5E1,1E0,1E0,1E0,1E0,1E0,1E0,1E0,7.2E1,1E0,1E2,2.2E1,1.9E1,-1.8988395E-2,-2.0078933E-3,-1.9007456E-3,2.635365E-3,-8.661971E-3,8.235923E-3,1.0155956E-2,1.5504112E-2,2.2170103E-4,1.7078051E-2,1.6915118E-2,2.2827838E-2,9.075586E-3,1.7239219E-2,2.6039505E-2,3.644969E-2],"split_indices":[0,0,0,13,13,13,13,19,6,15,3,19,3,0,0,0,0,0,0,0,0,0,0,0,0,0,0,0,0,0,0],"split_type":[0,0,0,0,0,0,0,0,0,0,0,0,0,0,0,0,0,0,0,0,0,0,0,0,0,0,0,0,0,0,0],"sum_hessian":[1.1196E4,4.415E3,6.781E3,1.665E3,2.75E3,3.604E3,3.177E3,1.603E3,6.2E1,2.653E3,9.7E1,3.437E3,1.67E2,3.033E3,1.44E2,1.524E3,7.9E1,2E1,4.2E1,2.553E3,1E2,7.5E1,2.2E1,3.287E3,1.5E2,7.7E1,9E1,1.779E3,1.254E3,5.5E1,8.9E1],"tree_param":{"num_deleted":"0","num_feature":"108","num_nodes":"31","size_leaf_vector":"1"}},{"base_weights":[1.0566698E-4,-2.4592881E-1,1.2275893E-1,-3.3850652E-1,-1.70852E-1,3.424526E-2,2.670551E-1,-3.2418406E-1,-3.2484718E-2,-1.8366098E-1,8.6745545E-3,1.7899046E-2,3.6994645E-1,2.5023544E-1,6.286272E-1,-1.6877042E-2,-7.9637143E-4,-9.880628E-3,7.049826E-3,1.561895E-4,1.6078658E-2,2.199347E-2,1.578243E-2,1.1728609E-2,3.0358344E-2,2.798216E-2,3.5887413E-2],"categories":[],"categories_nodes":[],"categories_segments":[],"categories_sizes":[],"default_left":[0,0,0,0,0,0,0,0,0,0,0,0,0,0,0,0,0,0,0,0,0,0,0,0,0,0,0],"id":26,"left_children":[1,3,5,7,9,11,13,15,-1,17,-1,19,21,23,25,-1,-1,-1,-1,-1,-1,-1,-1,-1,-1,-1,-1],"loss_changes":[3.3626154E2,2.5707458E1,9.496483E1,7.1834717E0,9.069359E0,2.5290493E1,1.7035156E1,6.532913E0,0E0,8.978127E0,0E0,1.972773E1,6.736412E-1,1.4969254E1,3.6680984E-1,0E0,0E0,0E0,0E0,0E0,0E0,0E0,0E0,0E0,0E0,0E0,0E0],"parents":[2147483647,0,0,1,1,2,2,3,3,4,4,5,5,6,6,7,7,9,9,11,11,12,12,13,13,14,14],"right_children":[2,4,6,8,10,12,14,16,-1,18,-1,20,22,24,26,-1,-1,-1,-1,-1,-1,-1,-1,-1,-1,-1,-1],"split_conditions":[7E0,4E0,1.6E1,1E0,1E0,1E0,1E0,1E0,-3.2484718E-2,1E0,8.6745545E-3,1E0,1.8E1,1E0,2.2E1,-1.6877042E-2,-7.9637143E-4,-9.880628E-3,7.049826E-3,1.561895E-4,1.6078658E-2,2.199347E-2,1.578243E-2,1.1728609E-2,3.0358344E-2,2.798216E-2,3.5887413E-2],"split_indices":[0,0,0,27,13,13,13,15,0,28,0,15,8,28,0,0,0,0,0,0,0,0,0,0,0,0,0],"split_type":[0,0,0,0,0,0,0,0,0,0,0,0,0,0,0,0,0,0,0,0,0,0,0,0,0,0,0],"sum_hessian":[1.1141E4,3.706E3,7.435E3,1.658E3,2.048E3,4.609E3,2.826E3,1.587E3,7.1E1,1.975E3,7.3E1,4.396E3,2.13E2,2.702E3,1.24E2,1.521E3,6.6E1,1.894E3,8.1E1,4.193E3,2.03E2,9E1,1.23E2,2.59E3,1.12E2,7.4E1,5E1],"tree_param":{"num_deleted":"0","num_feature":"108","num_nodes":"27","size_leaf_vector":"1"}},{"base_weights":[-1.1749843E-3,-1.6632867E-1,1.54486E-1,-2.5562328E-1,-5.2458905E-2,7.117704E-2,2.5963038E-1,-3.4819755E-1,-2.0687208E-1,-1.099107E-1,1.4546355E-2,5.8006793E-2,1.9209135E-2,1.9315676E-1,3.3453622E-1,-1.9113468E-2,-1.0735752E-2,-1.3334522E-2,-6.7863115E-3,-2.3667922E-3,-1.0000471E-2,-7.20627E-5,1.2559178E-2,3.497177E-3,-1.2457207E-2,6.3900365E-3,1.3521458E-2,1.4938737E-2,2.484089E-2],"categories":[],"categories_nodes":[],"categories_segments":[],"categories_sizes":[],"default_left":[0,0,0,0,0,0,0,0,0,0,0,0,0,0,0,0,0,0,0,0,0,0,0,0,0,0,0,0,0],"id":27,"left_children":[1,3,5,7,9,11,13,15,17,19,21,23,-1,25,27,-1,-1,-1,-1,-1,-1,-1,-1,-1,-1,-1,-1,-1,-1],"loss_changes":[2.8844357E2,5.5340942E1,5.0576202E1,1.3697464E1,9.217476E0,1.3268208E1,1.2647446E1,4.6978607E0,8.479713E0,7.257802E0,4.184651E0,1.13648815E1,0E0,6.808483E0,6.8098755E0,0E0,0E0,0E0,0E0,0E0,0E0,0E0,0E0,0E0,0E0,0E0,0E0,0E0,0E0],"parents":[2147483647,0,0,1,1,2,2,3,3,4,4,5,5,6,6,7,7,8,8,9,9,10,10,11,11,13,13,14,14],"right_children":[2,4,6,8,10,12,14,16,18,20,22,24,-1,26,28,-1,-1,-1,-1,-1,-1,-1,-1,-1,-1,-1,-1,-1,-1],"split_conditions":[9.3E1,6E0,1.68E2,3E0,1E0,1E0,1E0,2E0,1E0,2.5E1,1E0,1E0,1.9209135E-2,2.3E1,3E1,-1.9113468E-2,-1.0735752E-2,-1.3334522E-2,-6.7863115E-3,-2.3667922E-3,-1.0000471E-2,-7.20627E-5,1.2559178E-2,3.497177E-3,-1.2457207E-2,6.3900365E-3,1.3521458E-2,1.4938737E-2,2.484089E-2],"split_indices":[3,0,3,0,6,82,6,4,6,8,82,27,0,0,0,0,0,0,0,0,0,0,0,0,0,0,0,0,0],"split_type":[0,0,0,0,0,0,0,0,0,0,0,0,0,0,0,0,0,0,0,0,0,0,0,0,0,0,0,0,0],"sum_hessian":[1.1218E4,5.443E3,5.775E3,3.05E3,2.393E3,3.223E3,2.552E3,1.05E3,2E3,1.288E3,1.105E3,3.094E3,1.29E2,1.354E3,1.198E3,8.35E2,2.15E2,1.085E3,9.15E2,7.61E2,5.27E2,1.036E3,6.9E1,2.979E3,1.15E2,7.35E2,6.19E2,9.84E2,2.14E2],"tree_param":{"num_deleted":"0","num_feature":"108","num_nodes":"29","size_leaf_vector":"1"}},{"base_weights":[1.4336776E-3,-1.3550533E-1,1.7288367E-1,-1.9816928E-1,-2.864698E-2,1.1393301E-1,2.8898385E-1,-1.8585625E-1,-4.854402E-1,-4.259794E-2,2.8426072E-1,1.2720534E-1,-2.0166732E-1,3.0224627E-1,-3.7309762E-2,-9.898608E-3,4.4474634E-3,-2.8763304E-2,-2.1507282E-2,-2.7208694E-3,1.0549499E-2,9.643088E-3,1.6183563E-2,5.7126554E-3,2.1380775E-2,-1.3290646E-2,-7.5030304E-3,1.5762178E-2,-1.563127E-3,2.063248E-3,-6.367714E-3],"categories":[],"categories_nodes":[],"categories_segments":[],"categories_sizes":[],"default_left":[0,0,0,0,0,0,0,0,0,0,0,0,0,0,0,0,0,0,0,0,0,0,0,0,0,0,0,0,0,0,0],"id":28,"left_children":[1,3,5,7,9,11,13,15,17,19,21,23,25,27,29,-1,-1,-1,-1,-1,-1,-1,-1,-1,-1,-1,-1,-1,-1,-1,-1],"loss_changes":[2.6182877E2,4.151056E1,3.385945E1,1.3733032E1,1.0021886E1,1.3789886E1,7.225128E0,1.2499985E1,5.4725266E-1,6.593483E0,2.9058027E-1,1.2223305E1,4.0038776E-1,6.9540405E0,4.7222E-1,0E0,0E0,0E0,0E0,0E0,0E0,0E0,0E0,0E0,0E0,0E0,0E0,0E0,0E0,0E0,0E0],"parents":[2147483647,0,0,1,1,2,2,3,3,4,4,5,5,6,6,7,7,8,8,9,9,10,10,11,11,12,12,13,13,14,14],"right_children":[2,4,6,8,10,12,14,16,18,20,22,24,26,28,30,-1,-1,-1,-1,-1,-1,-1,-1,-1,-1,-1,-1,-1,-1,-1,-1],"split_conditions":[1.08E2,6.9E1,2.07E2,1E0,1E0,1E0,1E0,1E0,1E0,1E0,8.1E1,1E0,1.42E2,1E0,2.2E1,-9.898608E-3,4.4474634E-3,-2.8763304E-2,-2.1507282E-2,-2.7208694E-3,1.0549499E-2,9.643088E-3,1.6183563E-2,5.7126554E-3,2.1380775E-2,-1.3290646E-2,-7.5030304E-3,1.5762178E-2,-1.563127E-3,2.063248E-3,-6.367714E-3],"split_indices":[3,3,3,27,28,27,27,15,4,15,3,15,3,68,8,0,0,0,0,0,0,0,0,0,0,0,0,0,0,0,0],"split_type":[0,0,0,0,0,0,0,0,0,0,0,0,0,0,0,0,0,0,0,0,0,0,0,0,0,0,0,0,0,0,0],"sum_hessian":[1.115E4,6.199E3,4.951E3,3.907E3,2.292E3,3.285E3,1.666E3,3.748E3,1.59E2,2.195E3,9.7E1,3.153E3,1.32E2,1.601E3,6.5E1,3.59E3,1.58E2,5.7E1,1.02E2,2.098E3,9.7E1,3.1E1,6.6E1,3.024E3,1.29E2,5.7E1,7.5E1,1.541E3,6E1,3.5E1,3E1],"tree_param":{"num_deleted":"0","num_feature":"108","num_nodes":"31","size_leaf_vector":"1"}},{"base_weights":[5.3112925E-4,-1.18178226E-1,1.7500532E-1,-1.8156892E-1,-1.6978022E-2,1.3219132E-1,3.1997415E-1,-1.9503595E-1,1.4987755E-1,-3.3232674E-2,3.1877545E-1,1.1665453E-1,4.7724095E-1,2.5028026E-1,4.0080872E-1,-1.0475625E-2,5.8247778E-3,1.1175778E-2,5.312072E-3,-2.313219E-3,1.45631805E-2,1.1420625E-2,1.7079107E-2,5.1010707E-3,2.179989E-2,2.157033E-2,2.7932663E-2,1.1581461E-2,2.8023899E-2,1.8879892E-2,3.3764884E-2],"categories":[],"categories_nodes":[],"categories_segments":[],"categories_sizes":[],"default_left":[0,0,0,0,0,0,0,0,0,0,0,0,0,0,0,0,0,0,0,0,0,0,0,0,0,0,0,0,0,0,0],"id":29,"left_children":[1,3,5,7,9,11,13,15,17,19,21,23,25,27,29,-1,-1,-1,-1,-1,-1,-1,-1,-1,-1,-1,-1,-1,-1,-1,-1],"loss_changes":[2.3259256E2,4.286937E1,2.817955E1,1.8370163E1,1.4063801E1,1.8772038E1,5.7361603E0,1.7834015E1,4.9359083E-1,1.0403488E1,1.6722298E-1,1.5666107E1,3.2244492E-1,3.1042786E0,2.790413E0,0E0,0E0,0E0,0E0,0E0,0E0,0E0,0E0,0E0,0E0,0E0,0E0,0E0,0E0,0E0,0E0],"parents":[2147483647,0,0,1,1,2,2,3,3,4,4,5,5,6,6,7,7,8,8,9,9,10,10,11,11,12,12,13,13,14,14],"right_children":[2,4,6,8,10,12,14,16,18,20,22,24,26,28,30,-1,-1,-1,-1,-1,-1,-1,-1,-1,-1,-1,-1,-1,-1,-1,-1],"split_conditions":[1.16E2,7.1E1,2.5E2,1E0,1E0,1E0,1E0,1E0,1.3E1,1E0,3E0,1E0,1.82E2,1E0,1E0,-1.0475625E-2,5.8247778E-3,1.1175778E-2,5.312072E-3,-2.313219E-3,1.45631805E-2,1.1420625E-2,1.7079107E-2,5.1010707E-3,2.179989E-2,2.157033E-2,2.7932663E-2,1.1581461E-2,2.8023899E-2,1.8879892E-2,3.3764884E-2],"split_indices":[3,3,3,13,13,13,6,19,8,19,1,19,3,15,19,0,0,0,0,0,0,0,0,0,0,0,0,0,0,0,0],"split_type":[0,0,0,0,0,0,0,0,0,0,0,0,0,0,0,0,0,0,0,0,0,0,0,0,0,0,0,0,0,0,0],"sum_hessian":[1.1228E4,6.682E3,4.546E3,4.108E3,2.574E3,3.511E3,1.035E3,3.948E3,1.6E2,2.456E3,1.18E2,3.361E3,1.5E2,5.58E2,4.77E2,3.773E3,1.75E2,5.8E1,1.02E2,2.362E3,9.4E1,2.6E1,9.2E1,3.215E3,1.46E2,1E2,5E1,5.28E2,3E1,4.42E2,3.5E1],"tree_param":{"num_deleted":"0","num_feature":"108","num_nodes":"31","size_leaf_vector":"1"}},{"base_weights":[-1.07584E-3,-9.78191E-2,1.4697719E-1,-1.1121377E-1,2.1933292E-1,1.3202886E-1,4.8348665E-1,-1.2443814E-1,1.799283E-1,3.0900016E-1,1.7963493E-1,1.1798128E-1,4.6374813E-1,1.67884E-2,5.405093E-1,-6.881205E-3,8.683315E-3,5.183777E-3,1.2853726E-2,7.6672793E-3,1.7054033E-2,5.563986E-3,1.1620132E-2,5.1840874E-3,2.2076443E-2,1.7835675E-2,2.5967767E-2,1.07410755E-2,2.797415E-2],"categories":[],"categories_nodes":[],"categories_segments":[],"categories_sizes":[],"default_left":[0,0,0,0,0,0,0,0,0,0,0,0,0,0,0,0,0,0,0,0,0,0,0,0,0,0,0,0,0],"id":30,"left_children":[1,3,5,7,9,11,13,15,17,19,21,23,25,-1,27,-1,-1,-1,-1,-1,-1,-1,-1,-1,-1,-1,-1,-1,-1],"loss_changes":[1.605194E2,2.8818352E1,2.2215134E1,2.506388E1,9.233856E-1,1.9712402E1,1.4020958E0,2.4481293E1,1.6381273E0,3.6215544E-1,6.702795E-1,1.878902E1,8.3846664E-1,0E0,7.0785904E-1,0E0,0E0,0E0,0E0,0E0,0E0,0E0,0E0,0E0,0E0,0E0,0E0,0E0,0E0],"parents":[2147483647,0,0,1,1,2,2,3,3,4,4,5,5,6,6,7,7,8,8,9,9,10,10,11,11,12,12,14,14],"right_children":[2,4,6,8,10,12,14,16,18,20,22,24,26,-1,28,-1,-1,-1,-1,-1,-1,-1,-1,-1,-1,-1,-1,-1,-1],"split_conditions":[5E0,1E0,1E0,1E0,1.2E1,1E0,2E0,1E0,3E0,2E0,3E0,1E0,2E0,1.67884E-2,1E0,-6.881205E-3,8.683315E-3,5.183777E-3,1.2853726E-2,7.6672793E-3,1.7054033E-2,5.563986E-3,1.1620132E-2,5.1840874E-3,2.2076443E-2,1.7835675E-2,2.5967767E-2,1.07410755E-2,2.797415E-2],"split_indices":[1,13,13,19,8,28,7,28,1,1,1,19,7,0,4,0,0,0,0,0,0,0,0,0,0,0,0,0,0],"split_type":[0,0,0,0,0,0,0,0,0,0,0,0,0,0,0,0,0,0,0,0,0,0,0,0,0,0,0,0,0],"sum_hessian":[1.1205E4,6.777E3,4.428E3,6.503E3,2.74E2,4.241E3,1.87E2,6.221E3,2.82E2,8.2E1,1.92E2,4.07E3,1.71E2,5.4E1,1.33E2,5.958E3,2.63E2,1.43E2,1.39E2,1.5E1,6.7E1,8.5E1,1.07E2,3.899E3,1.71E2,6.1E1,1.1E2,8E0,1.25E2],"tree_param":{"num_deleted":"0","num_feature":"108","num_nodes":"29","size_leaf_vector":"1"}},{"base_weights":[1.1773505E-3,-1.9516656E-1,9.77268E-2,-2.8017405E-1,-1.2759808E-1,1.8927725E-2,2.0329823E-1,-2.928289E-1,1.2960237E-2,-1.3969414E-1,1.6682136E-1,6.5358314E-3,3.100997E-1,1.3792367E-1,2.773992E-1,-1.523058E-2,-1.3476195E-3,-1.1573137E-3,3.608819E-3,-7.6141343E-3,7.5312415E-3,6.537117E-3,1.1350322E-2,-2.604368E-4,1.4566875E-2,1.38588045E-2,1.910066E-2,5.317662E-3,1.4262433E-2,1.4527837E-2,-3.558779E-3],"categories":[],"categories_nodes":[],"categories_segments":[],"categories_sizes":[],"default_left":[0,0,0,0,0,0,0,0,0,0,0,0,0,0,0,0,0,0,0,0,0,0,0,0,0,0,0,0,0,0,0],"id":31,"left_children":[1,3,5,7,9,11,13,15,17,19,21,23,25,27,29,-1,-1,-1,-1,-1,-1,-1,-1,-1,-1,-1,-1,-1,-1,-1,-1],"loss_changes":[2.1047855E2,2.0986664E1,6.191394E1,6.013298E0,7.2919464E0,1.5379611E1,1.5371521E1,4.856949E0,1.4706063E-1,7.189789E0,1.4620543E-1,1.3682044E1,3.060875E-1,7.8393517E0,6.854393E0,0E0,0E0,0E0,0E0,0E0,0E0,0E0,0E0,0E0,0E0,0E0,0E0,0E0,0E0,0E0,0E0],"parents":[2147483647,0,0,1,1,2,2,3,3,4,4,5,5,6,6,7,7,8,8,9,9,10,10,11,11,12,12,13,13,14,14],"right_children":[2,4,6,8,10,12,14,16,18,20,22,24,26,28,30,-1,-1,-1,-1,-1,-1,-1,-1,-1,-1,-1,-1,-1,-1,-1,-1],"split_conditions":[7E0,4E0,1.5E1,1E0,1E0,1E0,1E0,1E0,3E0,1E0,2E0,1E0,1.2E1,2.9E1,1E0,-1.523058E-2,-1.3476195E-3,-1.1573137E-3,3.608819E-3,-7.6141343E-3,7.5312415E-3,6.537117E-3,1.1350322E-2,-2.604368E-4,1.4566875E-2,1.38588045E-2,1.910066E-2,5.317662E-3,1.4262433E-2,1.4527837E-2,-3.558779E-3],"split_indices":[0,0,0,28,19,14,6,19,0,28,7,28,0,0,27,0,0,0,0,0,0,0,0,0,0,0,0,0,0,0,0],"split_type":[0,0,0,0,0,0,0,0,0,0,0,0,0,0,0,0,0,0,0,0,0,0,0,0,0,0,0,0,0,0,0],"sum_hessian":[1.1101E4,3.659E3,7.442E3,1.619E3,2.04E3,4.262E3,3.18E3,1.552E3,6.7E1,1.96E3,8E1,4.089E3,1.73E2,1.691E3,1.489E3,1.486E3,6.6E1,4.2E1,2.5E1,1.879E3,8.1E1,5.2E1,2.8E1,3.928E3,1.61E2,1.22E2,5.1E1,1.394E3,2.97E2,1.435E3,5.4E1],"tree_param":{"num_deleted":"0","num_feature":"108","num_nodes":"31","size_leaf_vector":"1"}},{"base_weights":[-2.5161405E-3,-1.8994898E-1,9.054702E-2,-2.6874828E-1,-1.2512617E-1,1.3066354E-2,1.9076021E-1,-3.0588332E-1,-1.2731194E-1,-1.3729893E-1,1.3615713E-1,2.548692E-2,-2.5856954E-1,1.4576548E-1,2.76474E-1,-1.5937028E-2,-7.4754097E-4,-8.545435E-3,-2.8043264E-3,-7.380625E-3,7.6842085E-3,4.8441044E-3,9.673475E-3,1.8887488E-3,-1.3286901E-2,-1.4801499E-2,-7.7537033E-3,6.710776E-3,2.3500795E-2,1.4497218E-2,-2.5581296E-3],"categories":[],"categories_nodes":[],"categories_segments":[],"categories_sizes":[],"default_left":[0,0,0,0,0,0,0,0,0,0,0,0,0,0,0,0,0,0,0,0,0,0,0,0,0,0,0,0,0,0,0],"id":32,"left_children":[1,3,5,7,9,11,13,15,17,19,21,23,25,27,29,-1,-1,-1,-1,-1,-1,-1,-1,-1,-1,-1,-1,-1,-1,-1,-1],"loss_changes":[1.9462979E2,1.8876144E1,5.7890255E1,8.732307E0,6.484722E0,1.4197094E1,1.2497726E1,4.9403E0,1.0741272E0,5.853779E0,1.8609238E-1,1.4406697E1,6.6745853E-1,7.9289207E0,4.9489975E0,0E0,0E0,0E0,0E0,0E0,0E0,0E0,0E0,0E0,0E0,0E0,0E0,0E0,0E0,0E0,0E0],"parents":[2147483647,0,0,1,1,2,2,3,3,4,4,5,5,6,6,7,7,8,8,9,9,10,10,11,11,12,12,13,13,14,14],"right_children":[2,4,6,8,10,12,14,16,18,20,22,24,26,28,30,-1,-1,-1,-1,-1,-1,-1,-1,-1,-1,-1,-1,-1,-1,-1,-1],"split_conditions":[7E0,4E0,1.47E2,2E0,1E0,1E0,2.3E1,1E0,3E0,1E0,6E0,1E0,2E0,1E0,1E0,-1.5937028E-2,-7.4754097E-4,-8.545435E-3,-2.8043264E-3,-7.380625E-3,7.6842085E-3,4.8441044E-3,9.673475E-3,1.8887488E-3,-1.3286901E-2,-1.4801499E-2,-7.7537033E-3,6.710776E-3,2.3500795E-2,1.4497218E-2,-2.5581296E-3],"split_indices":[0,0,3,4,15,21,0,82,0,19,0,27,4,15,27,0,0,0,0,0,0,0,0,0,0,0,0,0,0,0,0],"split_type":[0,0,0,0,0,0,0,0,0,0,0,0,0,0,0,0,0,0,0,0,0,0,0,0,0,0,0,0,0,0,0],"sum_hessian":[1.1156E4,3.701E3,7.455E3,1.669E3,2.032E3,4.205E3,3.25E3,1.321E3,3.48E2,1.942E3,9E1,4.022E3,1.83E2,2.133E3,1.117E3,1.265E3,5.6E1,2.15E2,1.33E2,1.876E3,6.6E1,5.5E1,3.5E1,3.86E3,1.62E2,1.33E2,5E1,2.061E3,7.2E1,1.073E3,4.4E1],"tree_param":{"num_deleted":"0","num_feature":"108","num_nodes":"31","size_leaf_vector":"1"}},{"base_weights":[1.8891882E-3,-1.5275458E-1,9.966368E-2,-2.5143534E-1,-9.239057E-2,2.5439143E-2,1.8496826E-1,-2.8509238E-1,-1.213408E-1,-1.03898466E-1,2.0520695E-1,1.1844759E-2,3.296683E-1,1.4122935E-1,2.762268E-1,-1.4846413E-2,2.9623737E-3,-7.6637724E-3,-6.463461E-4,-5.7346816E-3,8.973019E-3,6.305236E-3,1.1564775E-2,1.1770576E-3,-1.1925201E-2,1.9628435E-2,1.4082222E-2,7.6984675E-3,-7.5830626E-3,1.1804634E-2,1.9338023E-2],"categories":[],"categories_nodes":[],"categories_segments":[],"categories_sizes":[],"default_left":[0,0,0,0,0,0,0,0,0,0,0,0,0,0,0,0,0,0,0,0,0,0,0,0,0,0,0,0,0,0,0],"id":33,"left_children":[1,3,5,7,9,11,13,15,17,19,21,23,25,27,29,-1,-1,-1,-1,-1,-1,-1,-1,-1,-1,-1,-1,-1,-1,-1,-1],"loss_changes":[1.6831834E2,2.566233E1,4.3177437E1,7.1287994E0,9.189299E0,1.5083525E1,1.2626175E1,5.3117447E0,1.1682281E0,7.9064407E0,1.7719889E-1,1.0233741E1,3.6066818E-1,8.034725E0,4.4646378E0,0E0,0E0,0E0,0E0,0E0,0E0,0E0,0E0,0E0,0E0,0E0,0E0,0E0,0E0,0E0,0E0],"parents":[2147483647,0,0,1,1,2,2,3,3,4,4,5,5,6,6,7,7,8,8,9,9,10,10,11,11,12,12,13,13,14,14],"right_children":[2,4,6,8,10,12,14,16,18,20,22,24,26,28,30,-1,-1,-1,-1,-1,-1,-1,-1,-1,-1,-1,-1,-1,-1,-1,-1],"split_conditions":[8E0,4E0,1.5E2,2E0,1E0,1E0,2.5E2,1E0,3E0,1E0,5E0,1E0,1.8E1,1E0,3.3E1,-1.4846413E-2,2.9623737E-3,-7.6637724E-3,-6.463461E-4,-5.7346816E-3,8.973019E-3,6.305236E-3,1.1564775E-2,1.1770576E-3,-1.1925201E-2,1.9628435E-2,1.4082222E-2,7.6984675E-3,-7.5830626E-3,1.1804634E-2,1.9338023E-2],"split_indices":[0,0,3,4,13,13,3,13,4,82,0,21,8,27,0,0,0,0,0,0,0,0,0,0,0,0,0,0,0,0,0],"split_type":[0,0,0,0,0,0,0,0,0,0,0,0,0,0,0,0,0,0,0,0,0,0,0,0,0,0,0,0,0,0,0],"sum_hessian":[1.113E4,4.311E3,6.819E3,1.635E3,2.676E3,3.647E3,3.172E3,1.298E3,3.37E2,2.577E3,9.9E1,3.492E3,1.55E2,2.146E3,1.026E3,1.255E3,4.3E1,2.6E2,7.7E1,2.483E3,9.4E1,2.6E1,7.3E1,3.337E3,1.55E2,6.4E1,9.1E1,2.057E3,8.9E1,7.55E2,2.71E2],"tree_param":{"num_deleted":"0","num_feature":"108","num_nodes":"31","size_leaf_vector":"1"}},{"base_weights":[-2.376079E-3,-1.1988472E-1,1.19127996E-1,-1.3245685E-1,1.8282185E-1,5.7505444E-2,1.9877931E-1,-1.20842494E-1,-4.0706235E-1,1.0899053E-1,2.1663268E-1,4.5081567E-2,3.6420658E-1,1.8513088E-1,5.189458E-1,-8.615118E-3,-3.078142E-3,-1.6315801E-2,-2.2588419E-2,9.805127E-3,4.2498056E-3,1.45034315E-2,9.083242E-3,1.5660044E-3,1.713814E-2,2.1558957E-2,1.567848E-2,8.563251E-3,2.4842395E-2,2.2578662E-2,2.9338181E-2],"categories":[],"categories_nodes":[],"categories_segments":[],"categories_sizes":[],"default_left":[0,0,0,0,0,0,0,0,0,0,0,0,0,0,0,0,0,0,0,0,0,0,0,0,0,0,0,0,0,0,0],"id":34,"left_children":[1,3,5,7,9,11,13,15,17,19,21,23,25,27,29,-1,-1,-1,-1,-1,-1,-1,-1,-1,-1,-1,-1,-1,-1,-1,-1],"loss_changes":[1.5888313E2,2.1552872E1,2.684198E1,1.7275452E1,5.405526E-1,1.1742528E1,1.03302E1,1.5891777E1,6.467476E-1,1.3591671E-1,3.4276152E-1,1.2143684E1,2.7175045E-1,9.812798E0,1.782341E-1,0E0,0E0,0E0,0E0,0E0,0E0,0E0,0E0,0E0,0E0,0E0,0E0,0E0,0E0,0E0,0E0],"parents":[2147483647,0,0,1,1,2,2,3,3,4,4,5,5,6,6,7,7,8,8,9,9,10,10,11,11,12,12,13,13,14,14],"right_children":[2,4,6,8,10,12,14,16,18,20,22,24,26,28,30,-1,-1,-1,-1,-1,-1,-1,-1,-1,-1,-1,-1,-1,-1,-1,-1],"split_conditions":[9.8E1,1E0,1.75E2,1E0,4.4E1,1E0,1E0,5.6E1,1.5E1,7E0,1.2E1,1E0,1.7E1,1E0,2.46E2,-8.615118E-3,-3.078142E-3,-1.6315801E-2,-2.2588419E-2,9.805127E-3,4.2498056E-3,1.45034315E-2,9.083242E-3,1.5660044E-3,1.713814E-2,2.1558957E-2,1.567848E-2,8.563251E-3,2.4842395E-2,2.2578662E-2,2.9338181E-2],"split_indices":[3,13,3,27,3,13,13,3,8,8,8,15,8,28,3,0,0,0,0,0,0,0,0,0,0,0,0,0,0,0,0],"split_type":[0,0,0,0,0,0,0,0,0,0,0,0,0,0,0,0,0,0,0,0,0,0,0,0,0,0,0,0,0,0,0],"sum_hessian":[1.1126E4,5.656E3,5.47E3,5.431E3,2.25E2,3.085E3,2.385E3,5.212E3,2.19E2,7.2E1,1.53E2,2.966E3,1.19E2,2.289E3,9.6E1,2.789E3,2.423E3,8.1E1,1.38E2,1.4E1,5.8E1,4.7E1,1.06E2,2.836E3,1.3E2,4.8E1,7.1E1,2.193E3,9.6E1,5.2E1,4.4E1],"tree_param":{"num_deleted":"0","num_feature":"108","num_nodes":"31","size_leaf_vector":"1"}},{"base_weights":[-4.413194E-4,-1.6529873E-1,8.114309E-2,-2.6789662E-1,-1.2543781E-1,1.6288096E-2,1.6863143E-1,-3.3216482E-1,-2.1753839E-1,-1.5368837E-1,-7.1759205E-3,3.0011104E-3,2.8985214E-1,1.5522207E-1,4.7192392E-1,-1.7408837E-2,-8.1407715E-4,-1.1837233E-2,-1.9306708E-3,-8.190477E-3,7.133141E-3,4.2935973E-3,-2.487957E-3,-4.440087E-4,1.3952429E-2,1.7842947E-2,1.2709282E-2,7.103905E-3,2.3296379E-2,1.8909361E-2,2.6679153E-2],"categories":[],"categories_nodes":[],"categories_segments":[],"categories_sizes":[],"default_left":[0,0,0,0,0,0,0,0,0,0,0,0,0,0,0,0,0,0,0,0,0,0,0,0,0,0,0,0,0,0,0],"id":35,"left_children":[1,3,5,7,9,11,13,15,17,19,21,23,25,27,29,-1,-1,-1,-1,-1,-1,-1,-1,-1,-1,-1,-1,-1,-1,-1,-1],"loss_changes":[1.511353E2,1.5179886E1,4.2649136E1,3.2936325E0,8.95602E0,1.5694374E1,1.2941017E1,2.2956696E0,2.004633E0,6.5141144E0,2.0567327E0,1.3511969E1,3.872738E-1,1.2455055E1,5.7847023E-1,0E0,0E0,0E0,0E0,0E0,0E0,0E0,0E0,0E0,0E0,0E0,0E0,0E0,0E0,0E0,0E0],"parents":[2147483647,0,0,1,1,2,2,3,3,4,4,5,5,6,6,7,7,8,8,9,9,10,10,11,11,12,12,13,13,14,14],"right_children":[2,4,6,8,10,12,14,16,18,20,22,24,26,28,30,-1,-1,-1,-1,-1,-1,-1,-1,-1,-1,-1,-1,-1,-1,-1,-1],"split_conditions":[7E0,3E0,1.5E1,1E0,2E0,1E0,1E0,1E0,3E0,1E0,1.3E1,1E0,1.3E1,1E0,1.9E1,-1.7408837E-2,-8.1407715E-4,-1.1837233E-2,-1.9306708E-3,-8.190477E-3,7.133141E-3,4.2935973E-3,-2.487957E-3,-4.440087E-4,1.3952429E-2,1.7842947E-2,1.2709282E-2,7.103905E-3,2.3296379E-2,1.8909361E-2,2.6679153E-2],"split_indices":[0,0,0,4,4,13,13,19,4,13,8,82,8,19,0,0,0,0,0,0,0,0,0,0,0,0,0,0,0,0,0],"split_type":[0,0,0,0,0,0,0,0,0,0,0,0,0,0,0,0,0,0,0,0,0,0,0,0,0,0,0,0,0,0,0],"sum_hessian":[1.1235E4,3.719E3,7.516E3,1.039E3,2.68E3,4.317E3,3.199E3,4.54E2,5.85E2,2.163E3,5.17E2,4.118E3,1.99E2,3.065E3,1.34E2,4.32E2,2.2E1,5.28E2,5.7E1,2.092E3,7.1E1,1.62E2,3.55E2,3.949E3,1.69E2,6.6E1,1.33E2,2.942E3,1.23E2,5.6E1,7.8E1],"tree_param":{"num_deleted":"0","num_feature":"108","num_nodes":"31","size_leaf_vector":"1"}},{"base_weights":[-3.0821207E-7,-1.8018621E-1,6.819129E-2,-2.3221627E-1,-1.189725E-1,2.7919705E-3,1.509121E-1,-2.4482201E-1,4.6219002E-2,-1.3360864E-1,1.4142141E-1,-5.0143316E-2,6.467877E-2,9.439179E-2,2.1559973E-1,-1.2929496E-2,-1.6821829E-4,-3.3264686E-3,4.3560877E-3,-7.4214726E-3,5.120778E-3,2.5163551E-3,9.000166E-3,-3.2301992E-3,1.1339921E-2,3.7330051E-3,-1.1502837E-2,4.0182522E-3,2.0407923E-2,9.9995425E-3,2.3389293E-2],"categories":[],"categories_nodes":[],"categories_segments":[],"categories_sizes":[],"default_left":[0,0,0,0,0,0,0,0,0,0,0,0,0,0,0,0,0,0,0,0,0,0,0,0,0,0,0,0,0,0,0],"id":36,"left_children":[1,3,5,7,9,11,13,15,17,19,21,23,25,27,29,-1,-1,-1,-1,-1,-1,-1,-1,-1,-1,-1,-1,-1,-1,-1,-1],"loss_changes":[1.3802173E2,9.794762E0,4.408474E1,5.858795E0,5.4269314E0,1.4915576E1,1.3134529E1,5.2981567E0,3.4245157E-1,4.716606E0,2.5805008E-1,9.8423395E0,6.1921206E0,8.426168E0,6.507698E0,0E0,0E0,0E0,0E0,0E0,0E0,0E0,0E0,0E0,0E0,0E0,0E0,0E0,0E0,0E0,0E0],"parents":[2147483647,0,0,1,1,2,2,3,3,4,4,5,5,6,6,7,7,8,8,9,9,10,10,11,11,12,12,13,13,14,14],"right_children":[2,4,6,8,10,12,14,16,18,20,22,24,26,28,30,-1,-1,-1,-1,-1,-1,-1,-1,-1,-1,-1,-1,-1,-1,-1,-1],"split_conditions":[6E0,1E0,1.4E1,1E0,1E0,1E0,1E0,1E0,3E0,1E0,3E0,1E0,1E0,1E0,1E0,-1.2929496E-2,-1.6821829E-4,-3.3264686E-3,4.3560877E-3,-7.4214726E-3,5.120778E-3,2.5163551E-3,9.000166E-3,-3.2301992E-3,1.1339921E-2,3.7330051E-3,-1.1502837E-2,4.0182522E-3,2.0407923E-2,9.9995425E-3,2.3389293E-2],"split_indices":[0,6,0,15,13,6,6,18,0,28,0,15,27,15,13,0,0,0,0,0,0,0,0,0,0,0,0,0,0,0,0],"split_type":[0,0,0,0,0,0,0,0,0,0,0,0,0,0,0,0,0,0,0,0,0,0,0,0,0,0,0,0,0,0,0],"sum_hessian":[1.1231E4,3.083E3,8.148E3,1.665E3,1.418E3,4.551E3,3.597E3,1.593E3,7.2E1,1.343E3,7.5E1,2.453E3,2.098E3,1.921E3,1.676E3,1.507E3,8.6E1,1.9E1,5.3E1,1.264E3,7.9E1,2.3E1,5.2E1,2.332E3,1.21E2,2.03E3,6.8E1,1.84E3,8.1E1,1.58E3,9.6E1],"tree_param":{"num_deleted":"0","num_feature":"108","num_nodes":"31","size_leaf_vector":"1"}},{"base_weights":[-8.322834E-4,-8.543216E-2,1.2789367E-1,-9.6854515E-2,1.7904332E-1,1.1538644E-1,4.075563E-1,-1.08939864E-1,1.7194831E-1,1.4642274E-1,1.2464648E-2,1.0237168E-1,4.1835937E-1,1.5844766E-2,2.22355E-2,-6.0660387E-3,8.538299E-3,4.3848995E-3,1.04019E-2,8.996679E-3,4.7469665E-3,4.433701E-3,2.0207277E-2,1.7777966E-2,2.4909467E-2],"categories":[],"categories_nodes":[],"categories_segments":[],"categories_sizes":[],"default_left":[0,0,0,0,0,0,0,0,0,0,0,0,0,0,0,0,0,0,0,0,0,0,0,0,0],"id":37,"left_children":[1,3,5,7,9,11,13,15,17,19,-1,21,23,-1,-1,-1,-1,-1,-1,-1,-1,-1,-1,-1,-1],"loss_changes":[1.2277614E2,2.056876E1,1.559166E1,2.1205956E1,6.0972404E-1,1.683767E1,5.024376E-1,2.163684E1,8.36154E-1,3.1934166E-1,0E0,1.6936714E1,7.0520973E-1,0E0,0E0,0E0,0E0,0E0,0E0,0E0,0E0,0E0,0E0,0E0,0E0],"parents":[2147483647,0,0,1,1,2,2,3,3,4,4,5,5,6,6,7,7,8,8,9,9,11,11,12,12],"right_children":[2,4,6,8,10,12,14,16,18,20,-1,22,24,-1,-1,-1,-1,-1,-1,-1,-1,-1,-1,-1,-1],"split_conditions":[1.19E2,1E0,1E0,1E0,8.5E1,1E0,2E0,1E0,4.6E1,2.3E1,1.2464648E-2,1E0,1.88E2,1.5844766E-2,2.22355E-2,-6.0660387E-3,8.538299E-3,4.3848995E-3,1.04019E-2,8.996679E-3,4.7469665E-3,4.433701E-3,2.0207277E-2,1.7777966E-2,2.4909467E-2],"split_indices":[3,13,13,15,3,15,7,28,3,8,0,19,3,0,0,0,0,0,0,0,0,0,0,0,0],"split_type":[0,0,0,0,0,0,0,0,0,0,0,0,0,0,0,0,0,0,0,0,0,0,0,0,0],"sum_hessian":[1.1272E4,6.802E3,4.47E3,6.521E3,2.81E2,4.28E3,1.9E2,6.241E3,2.8E2,1.94E2,8.7E1,4.105E3,1.75E2,5.8E1,1.32E2,5.977E3,2.64E2,8.5E1,1.95E2,1.16E2,7.8E1,3.928E3,1.77E2,1.01E2,7.4E1],"tree_param":{"num_deleted":"0","num_feature":"108","num_nodes":"25","size_leaf_vector":"1"}},{"base_weights":[1.5791657E-3,-8.9966625E-2,1.1144095E-1,-1.8253632E-1,-3.421346E-2,7.5394414E-2,2.1484442E-1,-1.9373734E-1,4.1970215E-3,-4.6540555E-2,2.3564535E-1,1.783487E-2,1.3919777E-1,1.9017524E-1,3.8246217E-1,-1.0262664E-2,3.7431146E-3,-2.867738E-3,1.0578058E-2,8.087288E-3,1.2463498E-2,1.4251068E-3,-1.1147657E-2,7.594477E-3,-7.3716515E-3,6.516418E-3,1.2987628E-2,1.9894179E-2,6.2391716E-3],"categories":[],"categories_nodes":[],"categories_segments":[],"categories_sizes":[],"default_left":[0,0,0,0,0,0,0,0,0,0,0,0,0,0,0,0,0,0,0,0,0,0,0,0,0,0,0,0,0],"id":38,"left_children":[1,3,5,7,9,11,13,15,-1,17,19,21,23,25,27,-1,-1,-1,-1,-1,-1,-1,-1,-1,-1,-1,-1,-1,-1],"loss_changes":[1.13467384E2,3.1754875E1,1.9097584E1,6.9201355E0,1.2791668E1,1.3967672E1,5.4061317E0,6.8822174E0,0E0,1.0269667E1,1.2883186E-1,5.146022E0,6.585079E0,4.7838745E0,6.219177E-1,0E0,0E0,0E0,0E0,0E0,0E0,0E0,0E0,0E0,0E0,0E0,0E0,0E0,0E0],"parents":[2147483647,0,0,1,1,2,2,3,3,4,4,5,5,6,6,7,7,9,9,10,10,11,11,12,12,13,13,14,14],"right_children":[2,4,6,8,10,12,14,16,-1,18,20,22,24,26,28,-1,-1,-1,-1,-1,-1,-1,-1,-1,-1,-1,-1,-1,-1],"split_conditions":[1.1E1,5E0,2.2E1,1E0,1E0,1E0,3.8E1,1E0,4.1970215E-3,1E0,4.9E1,1E0,1E0,1E0,1E0,-1.0262664E-2,3.7431146E-3,-2.867738E-3,1.0578058E-2,8.087288E-3,1.2463498E-2,1.4251068E-3,-1.1147657E-2,7.594477E-3,-7.3716515E-3,6.516418E-3,1.2987628E-2,1.9894179E-2,6.2391716E-3],"split_indices":[0,0,0,13,19,6,0,19,0,13,3,74,74,6,74,0,0,0,0,0,0,0,0,0,0,0,0,0,0],"split_type":[0,0,0,0,0,0,0,0,0,0,0,0,0,0,0,0,0,0,0,0,0,0,0,0,0,0,0,0,0],"sum_hessian":[1.128E4,6.153E3,5.127E3,2.312E3,3.841E3,3.803E3,1.324E3,2.219E3,9.3E1,3.674E3,1.67E2,2E3,1.803E3,1.156E3,1.68E2,2.128E3,9.1E1,3.527E3,1.47E2,2.8E1,1.39E2,1.916E3,8.4E1,1.727E3,7.6E1,6.23E2,5.33E2,1.58E2,1E1],"tree_param":{"num_deleted":"0","num_feature":"108","num_nodes":"29","size_leaf_vector":"1"}},{"base_weights":[1.6340934E-3,-1.0671225E-1,8.203894E-2,-9.539881E-2,-3.7631363E-1,2.7050864E-2,1.4694412E-1,-8.436344E-2,-3.4337372E-1,-3.2061183E-1,-2.1578137E-2,1.644553E-2,3.1283462E-1,1.3413422E-1,4.0969124E-1,-3.6429937E-3,-1.7580407E-2,-2.1401538E-2,-1.4551337E-2,-1.8593654E-2,-1.3455222E-2,2.0625231E-4,1.3847172E-2,1.8454676E-2,1.3353844E-2,6.1081895E-3,2.2016294E-2,1.7678434E-2,2.4545511E-2],"categories":[],"categories_nodes":[],"categories_segments":[],"categories_sizes":[],"default_left":[0,0,0,0,0,0,0,0,0,0,0,0,0,0,0,0,0,0,0,0,0,0,0,0,0,0,0,0,0],"id":39,"left_children":[1,3,5,7,9,11,13,15,17,19,-1,21,23,25,27,-1,-1,-1,-1,-1,-1,-1,-1,-1,-1,-1,-1,-1,-1],"loss_changes":[9.7160194E1,1.4455204E1,2.2844837E1,1.2452194E1,4.494362E-1,1.05027485E1,9.826939E0,1.3402771E1,7.351494E-1,1.6131973E-1,0E0,1.0731294E1,2.2063446E-1,1.0212566E1,4.463482E-1,0E0,0E0,0E0,0E0,0E0,0E0,0E0,0E0,0E0,0E0,0E0,0E0,0E0,0E0],"parents":[2147483647,0,0,1,1,2,2,3,3,4,4,5,5,6,6,7,7,8,8,9,9,11,11,12,12,13,13,14,14],"right_children":[2,4,6,8,10,12,14,16,18,20,-1,22,24,26,28,-1,-1,-1,-1,-1,-1,-1,-1,-1,-1,-1,-1,-1,-1],"split_conditions":[8.2E1,1E0,1.57E2,1E0,2E1,1E0,1E0,1E0,1E0,1E0,-2.1578137E-2,1E0,1.6E1,1E0,2.46E2,-3.6429937E-3,-1.7580407E-2,-2.1401538E-2,-1.4551337E-2,-1.8593654E-2,-1.3455222E-2,2.0625231E-4,1.3847172E-2,1.8454676E-2,1.3353844E-2,6.1081895E-3,2.2016294E-2,1.7678434E-2,2.4545511E-2],"split_indices":[3,23,3,27,8,14,13,62,4,4,0,15,8,28,3,0,0,0,0,0,0,0,0,0,0,0,0,0,0],"split_type":[0,0,0,0,0,0,0,0,0,0,0,0,0,0,0,0,0,0,0,0,0,0,0,0,0,0,0,0,0],"sum_hessian":[1.1151E4,4.75E3,6.401E3,4.56E3,1.9E2,3.466E3,2.935E3,4.367E3,1.93E2,9.8E1,9.2E1,3.343E3,1.23E2,2.8E3,1.35E2,4.188E3,1.79E2,7.1E1,1.22E2,4.6E1,5.2E1,3.193E3,1.5E2,5.2E1,7.1E1,2.696E3,1.04E2,8.3E1,5.2E1],"tree_param":{"num_deleted":"0","num_feature":"108","num_nodes":"29","size_leaf_vector":"1"}},{"base_weights":[4.6240684E-4,-8.2847394E-2,6.843589E-2,-7.2472654E-2,-3.1969693E-1,9.2553976E-4,1.1327869E-1,-1.273348E-2,-1.12501144E-1,-2.7582872E-1,-1.8725703E-2,-1.1443106E-2,2.6076928E-1,6.1788306E-2,1.716068E-1,-1.0529617E-4,-1.2969966E-2,-7.9894075E-3,-2.9049488E-3,-1.5040112E-2,-1.0668274E-2,-1.1404288E-3,1.251557E-2,1.466043E-2,1.0653886E-2,2.479943E-3,1.7099334E-2,9.180133E-3,-5.030954E-3],"categories":[],"categories_nodes":[],"categories_segments":[],"categories_sizes":[],"default_left":[0,0,0,0,0,0,0,0,0,0,0,0,0,0,0,0,0,0,0,0,0,0,0,0,0,0,0,0,0],"id":40,"left_children":[1,3,5,7,9,11,13,15,17,19,-1,21,23,25,27,-1,-1,-1,-1,-1,-1,-1,-1,-1,-1,-1,-1,-1,-1],"loss_changes":[6.345799E1,1.2349094E1,1.8681683E1,1.153644E1,4.040966E-1,7.9220705E0,1.1125771E1,5.0772123E0,7.422714E0,1.2457085E-1,0E0,7.005797E0,1.1079693E-1,6.7149167E0,5.6940575E0,0E0,0E0,0E0,0E0,0E0,0E0,0E0,0E0,0E0,0E0,0E0,0E0,0E0,0E0],"parents":[2147483647,0,0,1,1,2,2,3,3,4,4,5,5,6,6,7,7,8,8,9,9,11,11,12,12,13,13,14,14],"right_children":[2,4,6,8,10,12,14,16,18,20,-1,22,24,26,28,-1,-1,-1,-1,-1,-1,-1,-1,-1,-1,-1,-1,-1,-1],"split_conditions":[4E0,1E0,2E0,1.7E1,2E1,1E0,1E0,1E0,1E0,2E0,-1.8725703E-2,1E0,1E0,1E0,1E0,-1.0529617E-4,-1.2969966E-2,-7.9894075E-3,-2.9049488E-3,-1.5040112E-2,-1.0668274E-2,-1.1404288E-3,1.251557E-2,1.466043E-2,1.0653886E-2,2.479943E-3,1.7099334E-2,9.180133E-3,-5.030954E-3],"split_indices":[1,23,7,8,8,13,6,27,6,7,0,15,107,15,27,0,0,0,0,0,0,0,0,0,0,0,0,0,0],"split_type":[0,0,0,0,0,0,0,0,0,0,0,0,0,0,0,0,0,0,0,0,0,0,0,0,0,0,0,0,0],"sum_hessian":[1.1204E4,5.034E3,6.17E3,4.824E3,2.1E2,2.463E3,3.707E3,1.936E3,2.888E3,1.2E2,9E1,2.352E3,1.11E2,1.97E3,1.737E3,1.857E3,7.9E1,1.544E3,1.344E3,8.3E1,3.7E1,2.255E3,9.7E1,6.3E1,4.8E1,1.889E3,8.1E1,1.664E3,7.3E1],"tree_param":{"num_deleted":"0","num_feature":"108","num_nodes":"29","size_leaf_vector":"1"}},{"base_weights":[5.435515E-4,-9.56878E-2,7.7389196E-2,-1.0588639E-1,1.3796693E-1,6.618633E-2,3.5481524E-1,-1.170828E-1,1.358422E-1,9.5165245E-2,1.7109272E-1,5.4555528E-2,3.463182E-1,2.9348263E-1,4.2283693E-1,-6.4248354E-3,6.450453E-3,5.6907004E-3,1.15036955E-2,7.1625137E-3,3.316549E-3,6.809237E-3,1.0500879E-2,2.0871926E-3,1.6664902E-2,1.3007306E-2,1.9624563E-2,9.833718E-3,1.5732957E-2,1.8756362E-2,2.4402222E-2],"categories":[],"categories_nodes":[],"categories_segments":[],"categories_sizes":[],"default_left":[0,0,0,0,0,0,0,0,0,0,0,0,0,0,0,0,0,0,0,0,0,0,0,0,0,0,0,0,0,0,0],"id":41,"left_children":[1,3,5,7,9,11,13,15,17,19,21,23,25,27,29,-1,-1,-1,-1,-1,-1,-1,-1,-1,-1,-1,-1,-1,-1,-1,-1],"loss_changes":[8.2660866E1,1.1841187E1,1.9292519E1,1.288797E1,2.786286E-1,1.9448608E1,8.8134575E-1,1.2785709E1,4.1179872E-1,1.19442225E-1,1.290183E-1,2.0477394E1,8.4485435E-1,2.0462322E-1,1.6535568E-1,0E0,0E0,0E0,0E0,0E0,0E0,0E0,0E0,0E0,0E0,0E0,0E0,0E0,0E0,0E0,0E0],"parents":[2147483647,0,0,1,1,2,2,3,3,4,4,5,5,6,6,7,7,8,8,9,9,10,10,11,11,12,12,13,13,14,14],"right_children":[2,4,6,8,10,12,14,16,18,20,22,24,26,28,30,-1,-1,-1,-1,-1,-1,-1,-1,-1,-1,-1,-1,-1,-1,-1,-1],"split_conditions":[8.5E1,1E0,1E0,1E0,4.4E1,1E0,1.63E2,1E0,7.1E1,1.4E1,1E0,1E0,1.29E2,9.4E1,2.48E2,-6.4248354E-3,6.450453E-3,5.6907004E-3,1.15036955E-2,7.1625137E-3,3.316549E-3,6.809237E-3,1.0500879E-2,2.0871926E-3,1.6664902E-2,1.3007306E-2,1.9624563E-2,9.833718E-3,1.5732957E-2,1.8756362E-2,2.4402222E-2],"split_indices":[3,15,14,14,3,28,3,19,3,8,5,19,3,3,3,0,0,0,0,0,0,0,0,0,0,0,0,0,0,0,0],"split_type":[0,0,0,0,0,0,0,0,0,0,0,0,0,0,0,0,0,0,0,0,0,0,0,0,0,0,0,0,0,0,0],"sum_hessian":[1.1176E4,4.962E3,6.214E3,4.755E3,2.07E2,5.974E3,2.4E2,4.545E3,2.1E2,9.2E1,1.15E2,5.737E3,2.37E2,1.29E2,1.11E2,4.344E3,2.01E2,1.72E2,3.8E1,3.3E1,5.9E1,6.3E1,5.2E1,5.486E3,2.51E2,8.5E1,1.52E2,2.5E1,1.04E2,6.8E1,4.3E1],"tree_param":{"num_deleted":"0","num_feature":"108","num_nodes":"31","size_leaf_vector":"1"}},{"base_weights":[2.1950053E-3,-1.4126794E-1,5.48735E-2,-2.0465605E-1,-9.2007615E-2,2.6649797E-2,1.6555363E-1,-1.9280395E-1,-2.3309605E-2,-1.685482E-1,-5.450057E-2,-2.1481372E-2,8.1543855E-2,1.4392255E-1,3.188105E-1,-8.899346E-3,-2.1668626E-2,-9.1002155E-3,6.173161E-3,-4.94707E-3,-5.8465226E-5,1.9713368E-3,-3.622915E-3,4.5948774E-3,-9.227653E-3,6.625035E-3,2.21566E-2,1.4344974E-2,2.1933934E-2],"categories":[],"categories_nodes":[],"categories_segments":[],"categories_sizes":[],"default_left":[0,0,0,0,0,0,0,0,0,0,0,0,0,0,0,0,0,0,0,0,0,0,0,0,0,0,0,0,0],"id":42,"left_children":[1,3,5,7,9,11,13,15,-1,17,19,21,23,25,27,-1,-1,-1,-1,-1,-1,-1,-1,-1,-1,-1,-1,-1,-1],"loss_changes":[8.421999E1,9.32687E0,2.5457706E1,3.9645882E0,4.8310013E0,1.7164932E1,5.443943E0,4.3891983E0,0E0,2.1993237E0,2.6851919E0,1.07520485E1,8.378649E0,4.906952E0,6.544666E-1,0E0,0E0,0E0,0E0,0E0,0E0,0E0,0E0,0E0,0E0,0E0,0E0,0E0,0E0],"parents":[2147483647,0,0,1,1,2,2,3,3,4,4,5,5,6,6,7,7,9,9,10,10,11,11,12,12,13,13,14,14],"right_children":[2,4,6,8,10,12,14,16,-1,18,20,22,24,26,28,-1,-1,-1,-1,-1,-1,-1,-1,-1,-1,-1,-1,-1,-1],"split_conditions":[6E0,1E0,2E1,1E0,3E0,1E0,3.6E1,1E0,-2.3309605E-2,1E0,1E0,1.9E1,1E0,1E0,4.7E1,-8.899346E-3,-2.1668626E-2,-9.1002155E-3,6.173161E-3,-4.94707E-3,-5.8465226E-5,1.9713368E-3,-3.622915E-3,4.5948774E-3,-9.227653E-3,6.625035E-3,2.21566E-2,1.4344974E-2,2.1933934E-2],"split_indices":[0,4,0,62,0,6,0,68,0,15,6,8,27,19,0,0,0,0,0,0,0,0,0,0,0,0,0,0,0],"split_type":[0,0,0,0,0,0,0,0,0,0,0,0,0,0,0,0,0,0,0,0,0,0,0,0,0,0,0,0,0],"sum_hessian":[1.1142E4,2.992E3,8.15E3,1.307E3,1.685E3,6.495E3,1.655E3,1.252E3,5.5E1,5.53E2,1.132E3,3.461E3,3.034E3,1.452E3,2.03E2,1.181E3,7.1E1,5.29E2,2.4E1,6.17E2,5.15E2,1.577E3,1.884E3,2.921E3,1.13E2,1.4E3,5.2E1,1.63E2,4E1],"tree_param":{"num_deleted":"0","num_feature":"108","num_nodes":"29","size_leaf_vector":"1"}},{"base_weights":[1.5039941E-4,-1.3317278E-1,4.967787E-2,-1.4379059E-1,9.444971E-2,-5.528412E-4,1.1020136E-1,-1.5364346E-1,1.0542422E-1,1.1003872E-2,5.041618E-2,1.0270199E-2,-2.3787984E-1,9.898913E-2,3.6156622E-1,-8.235035E-3,4.1840095E-3,3.9609005E-3,1.0391972E-2,-1.0232977E-3,4.4694627E-3,1.0233718E-3,-1.2195978E-2,-6.3071596E-3,-1.3527994E-2,4.424909E-3,1.929504E-2,1.640796E-2,2.2444732E-2],"categories":[],"categories_nodes":[],"categories_segments":[],"categories_sizes":[],"default_left":[0,0,0,0,0,0,0,0,0,0,0,0,0,0,0,0,0,0,0,0,0,0,0,0,0,0,0,0,0],"id":43,"left_children":[1,3,5,7,9,11,13,15,17,-1,19,21,23,25,27,-1,-1,-1,-1,-1,-1,-1,-1,-1,-1,-1,-1,-1,-1],"loss_changes":[7.406106E1,7.355976E0,2.486231E1,7.144455E0,7.412337E-1,1.1484083E1,1.0417507E1,7.343025E0,2.814498E-1,0E0,2.8360388E-1,1.1088528E1,6.7792416E-1,1.0657276E1,3.136387E-1,0E0,0E0,0E0,0E0,0E0,0E0,0E0,0E0,0E0,0E0,0E0,0E0,0E0,0E0],"parents":[2147483647,0,0,1,1,2,2,3,3,4,4,5,5,6,6,7,7,8,8,10,10,11,11,12,12,13,13,14,14],"right_children":[2,4,6,8,10,12,14,16,18,-1,20,22,24,26,28,-1,-1,-1,-1,-1,-1,-1,-1,-1,-1,-1,-1,-1,-1],"split_conditions":[6E0,1E0,1.37E2,1E0,8E0,1E0,1E0,1E0,5E0,1.1003872E-2,3E0,1E0,9E0,1E0,2.4E1,-8.235035E-3,4.1840095E-3,3.9609005E-3,1.0391972E-2,-1.0232977E-3,4.4694627E-3,1.0233718E-3,-1.2195978E-2,-6.3071596E-3,-1.3527994E-2,4.424909E-3,1.929504E-2,1.640796E-2,2.2444732E-2],"split_indices":[0,19,3,13,8,62,19,15,0,0,0,23,8,15,0,0,0,0,0,0,0,0,0,0,0,0,0,0,0],"split_type":[0,0,0,0,0,0,0,0,0,0,0,0,0,0,0,0,0,0,0,0,0,0,0,0,0,0,0,0,0],"sum_hessian":[1.1214E4,3.037E3,8.177E3,2.902E3,1.35E2,4.469E3,3.708E3,2.792E3,1.1E2,3.4E1,1.01E2,4.275E3,1.94E2,3.551E3,1.57E2,2.668E3,1.24E2,8.9E1,2.1E1,3.6E1,6.5E1,4.111E3,1.64E2,4.5E1,1.49E2,3.427E3,1.24E2,1.17E2,4E1],"tree_param":{"num_deleted":"0","num_feature":"108","num_nodes":"29","size_leaf_vector":"1"}},{"base_weights":[7.6966744E-4,-1.2710851E-1,4.748687E-2,-2.0002449E-1,-8.971292E-2,6.2327745E-4,1.0965994E-1,-2.1014792E-1,1.5229019E-3,-1.3815628E-1,-3.4060065E-2,5.8107164E-2,-4.423345E-2,1.20643206E-1,-1.4083046E-1,-1.0987403E-2,2.79415E-3,-7.4902438E-3,3.3837177E-3,2.6833978E-3,-3.1253905E-3,3.4003146E-3,-9.141825E-3,-1.6932816E-3,-1.5298391E-2,6.590447E-3,-7.0588775E-3,-7.914832E-3,2.0073892E-3],"categories":[],"categories_nodes":[],"categories_segments":[],"categories_sizes":[],"default_left":[0,0,0,0,0,0,0,0,0,0,0,0,0,0,0,0,0,0,0,0,0,0,0,0,0,0,0,0,0],"id":44,"left_children":[1,3,5,7,9,11,13,15,-1,17,19,21,23,25,27,-1,-1,-1,-1,-1,-1,-1,-1,-1,-1,-1,-1,-1,-1],"loss_changes":[6.756129E1,8.233154E0,2.4133722E1,2.3980064E0,5.392708E0,1.2183588E1,9.811272E0,2.5202446E0,0E0,2.5756092E0,2.331809E0,4.9520445E0,7.19157E0,9.990391E0,4.8050475E-1,0E0,0E0,0E0,0E0,0E0,0E0,0E0,0E0,0E0,0E0,0E0,0E0,0E0,0E0],"parents":[2147483647,0,0,1,1,2,2,3,3,4,4,5,5,6,6,7,7,9,9,10,10,11,11,12,12,13,13,14,14],"right_children":[2,4,6,8,10,12,14,16,-1,18,20,22,24,26,28,-1,-1,-1,-1,-1,-1,-1,-1,-1,-1,-1,-1,-1,-1],"split_conditions":[6E0,3E0,1.41E2,1E0,1E0,1.8E1,1E0,1E0,1.5229019E-3,1E0,1.1E1,1E0,1E0,1E0,3.2E1,-1.0987403E-2,2.79415E-3,-7.4902438E-3,3.3837177E-3,2.6833978E-3,-3.1253905E-3,3.4003146E-3,-9.141825E-3,-1.6932816E-3,-1.5298391E-2,6.590447E-3,-7.0588775E-3,-7.914832E-3,2.0073892E-3],"split_indices":[0,0,3,28,6,8,62,13,0,18,8,23,27,27,0,0,0,0,0,0,0,0,0,0,0,0,0,0,0],"split_type":[0,0,0,0,0,0,0,0,0,0,0,0,0,0,0,0,0,0,0,0,0,0,0,0,0,0,0,0,0],"sum_hessian":[1.1307E4,3.025E3,8.282E3,1.024E3,2.001E3,4.723E3,3.559E3,9.81E2,4.3E1,1.069E3,9.32E2,2.07E3,2.653E3,3.41E3,1.49E2,9.47E2,3.4E1,1.012E3,5.7E1,2.28E2,7.04E2,1.989E3,8.1E1,2.553E3,1E2,3.271E3,1.39E2,1.36E2,1.3E1],"tree_param":{"num_deleted":"0","num_feature":"108","num_nodes":"29","size_leaf_vector":"1"}},{"base_weights":[-3.517454E-4,-1.2160371E-1,4.4937685E-2,-1.8562004E-1,-7.056033E-2,1.8420933E-2,1.4506681E-1,-2.3829721E-1,-1.2248225E-1,-1.3823982E-1,-3.596603E-2,7.6085157E-3,2.4578784E-1,1.329237E-1,2.0769242E-2,-1.2479934E-2,1.7991782E-3,-5.5030473E-3,-2.002975E-2,-7.875504E-3,1.3201049E-3,-4.0347297E-3,8.02154E-4,-1.7391214E-4,1.2866387E-2,1.5579929E-2,1.0555791E-2,6.1120703E-3,2.08279E-2],"categories":[],"categories_nodes":[],"categories_segments":[],"categories_sizes":[],"default_left":[0,0,0,0,0,0,0,0,0,0,0,0,0,0,0,0,0,0,0,0,0,0,0,0,0,0,0,0,0],"id":45,"left_children":[1,3,5,7,9,11,13,15,17,19,21,23,25,27,-1,-1,-1,-1,-1,-1,-1,-1,-1,-1,-1,-1,-1,-1,-1],"loss_changes":[6.1569912E1,9.949848E0,2.1670902E1,4.467457E0,3.9705963E0,1.5867012E1,5.5545845E0,2.290413E0,2.08735E0,1.825285E0,2.6183734E0,1.7063633E1,6.027794E-1,4.90897E0,0E0,0E0,0E0,0E0,0E0,0E0,0E0,0E0,0E0,0E0,0E0,0E0,0E0,0E0,0E0],"parents":[2147483647,0,0,1,1,2,2,3,3,4,4,5,5,6,6,7,7,8,8,9,9,10,10,11,11,12,12,13,13],"right_children":[2,4,6,8,10,12,14,16,18,20,22,24,26,28,-1,-1,-1,-1,-1,-1,-1,-1,-1,-1,-1,-1,-1,-1,-1],"split_conditions":[6E0,1E0,2E1,4E0,3E0,1E0,1E0,1E0,1E0,3E0,1E0,1E0,1.5E1,1E0,2.0769242E-2,-1.2479934E-2,1.7991782E-3,-5.5030473E-3,-2.002975E-2,-7.875504E-3,1.3201049E-3,-4.0347297E-3,8.02154E-4,-1.7391214E-4,1.2866387E-2,1.5579929E-2,1.0555791E-2,6.1120703E-3,2.08279E-2],"split_indices":[0,4,0,0,0,13,28,13,21,4,6,14,8,14,0,0,0,0,0,0,0,0,0,0,0,0,0,0,0],"split_type":[0,0,0,0,0,0,0,0,0,0,0,0,0,0,0,0,0,0,0,0,0,0,0,0,0,0,0,0,0],"sum_hessian":[1.121E4,3.048E3,8.162E3,1.351E3,1.697E3,6.454E3,1.708E3,7.35E2,6.16E2,5.73E2,1.124E3,6.162E3,2.92E2,1.636E3,7.2E1,7.06E2,2.9E1,5.91E2,2.5E1,5.13E2,6E1,6.04E2,5.2E2,5.901E3,2.61E2,9.8E1,1.94E2,1.578E3,5.8E1],"tree_param":{"num_deleted":"0","num_feature":"108","num_nodes":"29","size_leaf_vector":"1"}},{"base_weights":[4.4727666E-4,-9.7088665E-2,4.9734347E-2,-8.678441E-2,-3.2331324E-1,6.0316432E-2,-1.800199E-1,-7.683065E-2,-3.038195E-1,-1.9213108E-2,-2.696073E-1,7.105077E-2,-1.9001493E-1,-2.3128532E-1,-1.3189892E-1,-6.3641085E-3,-1.8280639E-3,-1.6850824E-2,-1.1983331E-2,-9.796151E-3,-1.6105624E-2,4.0956414E-3,-9.069374E-3,-1.3619698E-2,-7.909118E-3,-1.2501958E-2,-7.938541E-3,-7.0617013E-3,8.361903E-4],"categories":[],"categories_nodes":[],"categories_segments":[],"categories_sizes":[],"default_left":[0,0,0,0,0,0,0,0,0,0,0,0,0,0,0,0,0,0,0,0,0,0,0,0,0,0,0,0,0],"id":46,"left_children":[1,3,5,7,9,11,13,15,17,-1,19,21,23,25,27,-1,-1,-1,-1,-1,-1,-1,-1,-1,-1,-1,-1,-1,-1],"loss_changes":[5.3701927E1,8.713486E0,1.8053381E1,7.727867E0,4.299488E-1,1.9078772E1,7.761841E-1,6.9679737E0,2.5358868E-1,0E0,2.8508377E-1,1.8671425E1,7.2263336E-1,1.7380905E-1,2.3960853E-1,0E0,0E0,0E0,0E0,0E0,0E0,0E0,0E0,0E0,0E0,0E0,0E0,0E0,0E0],"parents":[2147483647,0,0,1,1,2,2,3,3,4,4,5,5,6,6,7,7,8,8,10,10,11,11,12,12,13,13,14,14],"right_children":[2,4,6,8,10,12,14,16,18,-1,20,22,24,26,28,-1,-1,-1,-1,-1,-1,-1,-1,-1,-1,-1,-1,-1,-1],"split_conditions":[7E0,1E0,1E0,1E0,4E0,1E0,2E0,4E0,5E0,-1.9213108E-2,1E0,1E0,1.01E2,1.5E1,3.1E1,-6.3641085E-3,-1.8280639E-3,-1.6850824E-2,-1.1983331E-2,-9.796151E-3,-1.6105624E-2,4.0956414E-3,-9.069374E-3,-1.3619698E-2,-7.909118E-3,-1.2501958E-2,-7.938541E-3,-7.0617013E-3,8.361903E-4],"split_indices":[0,74,62,23,0,23,7,0,0,0,106,74,3,0,0,0,0,0,0,0,0,0,0,0,0,0,0,0,0],"split_type":[0,0,0,0,0,0,0,0,0,0,0,0,0,0,0,0,0,0,0,0,0,0,0,0,0,0,0,0,0],"sum_hessian":[1.1169E4,3.749E3,7.42E3,3.587E3,1.62E2,7.094E3,3.26E2,3.431E3,1.56E2,7.3E1,8.9E1,6.803E3,2.91E2,1.56E2,1.7E2,1.522E3,1.909E3,1E2,5.6E1,3.9E1,5E1,6.523E3,2.8E2,7.9E1,2.12E2,1.22E2,3.4E1,1.6E2,1E1],"tree_param":{"num_deleted":"0","num_feature":"108","num_nodes":"29","size_leaf_vector":"1"}},{"base_weights":[-3.005331E-5,-6.2154368E-2,7.538125E-2,-1.3906161E-1,-3.2747906E-2,6.5308936E-2,3.1669578E-1,-2.1004714E-1,-8.416522E-2,-2.3079377E-2,-2.5334615E-1,5.4861274E-2,3.2383335E-1,2.9582992E-1,2.4172306E-2,-5.6149187E-3,-1.2357683E-2,-4.9394346E-3,2.5166518E-3,1.3269855E-3,-3.2280458E-3,-7.717315E-3,-1.4724423E-2,2.1946218E-3,1.5220808E-2,1.3426395E-2,1.8675983E-2,1.2829982E-2,1.7103156E-2],"categories":[],"categories_nodes":[],"categories_segments":[],"categories_sizes":[],"default_left":[0,0,0,0,0,0,0,0,0,0,0,0,0,0,0,0,0,0,0,0,0,0,0,0,0,0,0,0,0],"id":47,"left_children":[1,3,5,7,9,11,13,15,17,19,21,23,25,27,-1,-1,-1,-1,-1,-1,-1,-1,-1,-1,-1,-1,-1,-1,-1],"loss_changes":[5.2615833E1,1.3922195E1,1.2309727E1,6.618656E0,9.4981785E0,1.3138691E1,5.632992E-1,2.6635666E0,1.8970628E0,8.790552E0,7.162142E-1,1.2805539E1,4.1905785E-1,2.4414062E-1,0E0,0E0,0E0,0E0,0E0,0E0,0E0,0E0,0E0,0E0,0E0,0E0,0E0,0E0,0E0],"parents":[2147483647,0,0,1,1,2,2,3,3,4,4,5,5,6,6,7,7,8,8,9,9,10,10,11,11,12,12,13,13],"right_children":[2,4,6,8,10,12,14,16,18,20,22,24,26,28,-1,-1,-1,-1,-1,-1,-1,-1,-1,-1,-1,-1,-1,-1,-1],"split_conditions":[1.1E1,4E0,1E0,1E0,1E0,1E0,2.9E1,1.1E1,3E0,1.9E1,1.2E1,1E0,1.7E1,1E0,2.4172306E-2,-5.6149187E-3,-1.2357683E-2,-4.9394346E-3,2.5166518E-3,1.3269855E-3,-3.2280458E-3,-7.717315E-3,-1.4724423E-2,2.1946218E-3,1.5220808E-2,1.3426395E-2,1.8675983E-2,1.2829982E-2,1.7103156E-2],"split_indices":[0,0,15,4,21,82,0,8,4,8,8,19,0,6,0,0,0,0,0,0,0,0,0,0,0,0,0,0,0],"split_type":[0,0,0,0,0,0,0,0,0,0,0,0,0,0,0,0,0,0,0,0,0,0,0,0,0,0,0,0,0],"sum_hessian":[1.1229E4,6.157E3,5.072E3,1.702E3,4.455E3,4.87E3,2.02E2,7.41E2,9.61E2,4.269E3,1.86E2,4.682E3,1.88E2,1.82E2,2E1,2.05E2,5.36E2,8.67E2,9.4E1,1.944E3,2.325E3,5.6E1,1.3E2,4.486E3,1.96E2,9.2E1,9.6E1,1.02E2,8E1],"tree_param":{"num_deleted":"0","num_feature":"108","num_nodes":"29","size_leaf_vector":"1"}},{"base_weights":[2.5687155E-3,-5.223115E-2,8.206319E-2,-1.20300986E-1,-1.5597549E-2,4.991777E-2,1.5931349E-1,-1.290263E-1,1.0876737E-1,-2.5430838E-2,2.0234315E-1,1.04195625E-1,3.6399378E-3,1.3891475E-1,3.0675888E-1,-6.9249854E-3,5.232315E-3,3.6078019E-3,7.4533247E-3,-1.7760148E-3,9.780935E-3,1.3718664E-2,8.879225E-3,5.6867986E-3,-5.7004467E-3,-3.4692677E-4,1.2006303E-2,6.4303773E-3,2.017553E-2,1.3231583E-2,2.0908447E-2],"categories":[],"categories_nodes":[],"categories_segments":[],"categories_sizes":[],"default_left":[0,0,0,0,0,0,0,0,0,0,0,0,0,0,0,0,0,0,0,0,0,0,0,0,0,0,0,0,0,0,0],"id":48,"left_children":[1,3,5,7,9,11,13,15,17,19,21,23,25,27,29,-1,-1,-1,-1,-1,-1,-1,-1,-1,-1,-1,-1,-1,-1,-1,-1],"loss_changes":[4.899073E1,1.6598307E1,1.1387651E1,4.6689835E0,9.282511E0,8.143077E0,4.0117645E0,4.981991E0,1.161288E-1,9.24696E0,2.8476524E-1,3.1189308E0,4.3820763E0,3.1826172E0,6.543608E-1,0E0,0E0,0E0,0E0,0E0,0E0,0E0,0E0,0E0,0E0,0E0,0E0,0E0,0E0,0E0,0E0],"parents":[2147483647,0,0,1,1,2,2,3,3,4,4,5,5,6,6,7,7,8,8,9,9,10,10,11,11,12,12,13,13,14,14],"right_children":[2,4,6,8,10,12,14,16,18,20,22,24,26,28,30,-1,-1,-1,-1,-1,-1,-1,-1,-1,-1,-1,-1,-1,-1,-1,-1],"split_conditions":[1.2E1,5E0,2.2E1,1E0,1E0,1.9E1,3.8E1,1E0,3E0,1E0,1.1E1,1E0,1E0,1E0,4.7E1,-6.9249854E-3,5.232315E-3,3.6078019E-3,7.4533247E-3,-1.7760148E-3,9.780935E-3,1.3718664E-2,8.879225E-3,5.6867986E-3,-5.7004467E-3,-3.4692677E-4,1.2006303E-2,6.4303773E-3,2.017553E-2,1.3231583E-2,2.0908447E-2],"split_indices":[0,0,0,82,19,8,0,13,0,13,8,27,13,13,0,0,0,0,0,0,0,0,0,0,0,0,0,0,0,0,0],"split_type":[0,0,0,0,0,0,0,0,0,0,0,0,0,0,0,0,0,0,0,0,0,0,0,0,0,0,0,0,0,0,0],"sum_hessian":[1.1244E4,6.656E3,4.588E3,2.328E3,4.328E3,3.241E3,1.347E3,2.243E3,8.5E1,4.142E3,1.86E2,1.491E3,1.75E3,1.185E3,1.62E2,2.156E3,8.7E1,4.6E1,3.9E1,3.962E3,1.8E2,4.5E1,1.41E2,1.429E3,6.2E1,1.676E3,7.4E1,1.142E3,4.3E1,1.2E2,4.2E1],"tree_param":{"num_deleted":"0","num_feature":"108","num_nodes":"31","size_leaf_vector":"1"}},{"base_weights":[1.030921E-4,-5.1414784E-2,7.6146744E-2,-1.16792046E-1,-1.6068332E-2,6.598557E-2,3.0950287E-1,-1.2571514E-1,5.115869E-3,-5.854932E-2,3.458111E-2,5.5716805E-2,3.1974465E-1,2.5557652E-1,1.9641725E-2,-6.7558507E-3,5.050667E-3,-1.1860342E-5,-5.0173295E-3,1.1044894E-3,1.0224227E-2,2.2192204E-3,1.5669426E-2,1.3096586E-2,1.8070607E-2,1.4763548E-2,1.0577514E-2],"categories":[],"categories_nodes":[],"categories_segments":[],"categories_sizes":[],"default_left":[0,0,0,0,0,0,0,0,0,0,0,0,0,0,0,0,0,0,0,0,0,0,0,0,0,0,0],"id":49,"left_children":[1,3,5,7,9,11,13,15,-1,17,19,21,23,25,-1,-1,-1,-1,-1,-1,-1,-1,-1,-1,-1,-1,-1],"loss_changes":[4.376751E1,1.5388414E1,1.0678312E1,4.582012E0,9.30571E0,1.12522335E1,7.4443054E-1,4.801384E0,0E0,5.7324753E0,4.182817E0,1.2127606E1,3.100319E-1,1.4200354E-1,